
#include <eml_net.h>
static const float smart_transformer_fault_detection_layer_0_biases[64] = { 0.195883f, -0.321858f, 0.155625f, 0.021169f, -0.268351f, 0.104346f, -0.172950f, -0.192261f, -0.167199f, 0.200355f, 0.637809f, 0.291629f, 0.314117f, 0.272379f, -0.228018f, -0.115900f, -0.049781f, -0.124406f, -0.202930f, 0.636311f, -0.288633f, 0.213213f, -0.157226f, -0.668087f, -0.235571f, 0.179030f, 0.692271f, -0.190982f, 0.616722f, 0.311030f, -0.327274f, -0.077086f, -0.151561f, 0.015181f, -0.011543f, 0.186354f, 0.167646f, -0.054950f, 0.115999f, 0.073735f, 0.339896f, 0.143775f, 0.284616f, 0.053345f, -0.094785f, 0.615114f, 0.016343f, -0.592599f, 0.307095f, -0.580832f, -0.051652f, 0.105669f, 0.183216f, 0.317876f, 0.123901f, 0.203961f, -0.076180f, -0.037909f, 0.019060f, 0.129334f, 0.211765f, -0.527403f, -0.206141f, 0.599678f };
static const float smart_transformer_fault_detection_layer_0_weights[384] = { -0.228561f, -0.221197f, 0.277108f, 0.065347f, -0.259405f, 0.283384f, 0.125416f, 0.134673f, -0.215565f, 0.146313f, 0.174359f, 0.256991f, 0.154247f, 0.147966f, -0.018572f, -0.278727f, 0.009351f, -0.265052f, 0.054002f, -0.123795f, 0.188866f, 0.279720f, -0.277297f, -0.028840f, 0.063559f, -0.167510f, -0.142875f, -0.129384f, 0.002725f, -0.063276f, 0.058752f, 0.139759f, -0.212529f, -0.091383f, 0.227145f, 0.164745f, 0.221231f, -0.044155f, -0.019621f, 0.162900f, 0.061846f, -0.011676f, -0.014118f, -0.061364f, -0.084005f, 0.015152f, 0.005119f, 0.149003f, -0.001226f, 0.006945f, 0.215660f, -0.144969f, 0.226445f, -0.063825f, 0.291780f, 0.119034f, 0.067708f, -0.108126f, 0.202303f, -0.139154f, 0.055451f, -0.057594f, -0.129688f, 0.231309f, 0.035742f, -0.210405f, -0.031191f, -0.021692f, 0.000563f, -0.144474f, -0.068640f, 0.126040f, 0.236073f, -0.107794f, 0.177783f, 0.263623f, 0.155199f, 0.099785f, -0.015506f, -0.278754f, 0.225044f, -0.150400f, -0.218280f, -0.118456f, 0.032654f, 0.288054f, 0.168704f, -0.025235f, 0.147242f, -0.071531f, -0.142721f, 0.055219f, -0.046906f, 0.082208f, -0.148159f, -0.023913f, -0.057919f, 0.249205f, -0.066899f, 0.283959f, 0.291704f, -0.145994f, -0.023481f, -0.219987f, -0.026453f, -0.031070f, -0.014422f, -0.211719f, 0.153949f, -0.242972f, -0.171869f, 0.134442f, 0.158894f, -0.117948f, -0.275246f, -0.224269f, -0.028205f, 0.070894f, -0.021996f, -0.295117f, -0.188148f, 0.194163f, 0.126219f, 0.231849f, -0.019709f, -0.059168f, 0.057963f, 0.226265f, -0.207485f, -0.089043f, 0.157060f, 0.293068f, 0.204887f, 0.269500f, -0.070241f, -0.288829f, -0.290325f, -0.140734f, 0.172969f, 0.088671f, 0.160751f, 0.079956f, -0.232569f, -0.278575f, -0.270918f, 0.308879f, 0.179112f, -0.116404f, -0.177985f, -0.097728f, 0.058482f, -0.021549f, 0.085345f, 0.174363f, -0.142665f, -0.012664f, -0.053280f, 0.232016f, -0.306956f, 0.053635f, -0.061714f, 0.125349f, -0.194345f, -0.156053f, -0.081614f, 0.290918f, 0.338580f, 0.237256f, 0.055856f, 0.322707f, 0.209088f, 0.237800f, -0.162990f, -0.236157f, -0.139207f, 0.143138f, -0.035915f, -0.117697f, -0.265399f, -0.080174f, 0.018154f, -0.089642f, 0.164380f, 0.064933f, 0.267279f, 0.204241f, 0.119596f, 0.143532f, 0.239155f, -0.051947f, 0.286660f, 0.228884f, 0.065659f, -0.288656f, 0.338944f, 0.396160f, 0.223345f, 0.150997f, -0.001867f, 0.186693f, 0.078810f, 0.293033f, 0.350768f, 0.362182f, 0.226522f, -0.275248f, -0.418386f, -0.192643f, -0.028318f, -0.259939f, 0.032084f, 0.236667f, -0.021729f, 0.413863f, 0.310991f, 0.081444f, -0.151233f, -0.084206f, 0.076983f, -0.014714f, 0.182619f, -0.171361f, 0.093230f, -0.260685f, -0.153697f, 0.265386f, 0.136755f, 0.376730f, 0.279400f, -0.016444f, -0.046270f, -0.190006f, 0.493467f, 0.219894f, 0.160754f, -0.081815f, -0.079655f, -0.072762f, -0.267100f, -0.376661f, 0.406839f, -0.066397f, 0.197894f, 0.143451f, 0.246410f, 0.205205f, -0.164415f, 0.052345f, 0.109814f, 0.180210f, 0.112377f, 0.009568f, -0.021501f, -0.279967f, -0.167078f, -0.127129f, -0.107622f, 0.532333f, 0.327745f, -0.082814f, 0.027782f, -0.026303f, -0.033822f, 0.252571f, 0.306338f, -0.303807f, -0.072312f, -0.092319f, -0.064945f, 0.019511f, 0.093851f, 0.077673f, -0.089888f, 0.323789f, -0.130805f, 0.479994f, 0.274350f, 0.037861f, -0.158540f, 0.566932f, 0.222143f, -0.383020f, -0.000272f, -0.238186f, -0.342756f, -0.141975f, -0.130856f, 0.175584f, -0.023520f, 0.261115f, 0.150127f, -0.079612f, -0.284675f, 0.082504f, 0.019634f, -0.041507f, -0.304486f, 0.102676f, -0.202512f, 0.314696f, -0.055820f, -0.181969f, 0.504056f, -0.229898f, -0.161388f, -0.302819f, 0.101419f, -0.069006f, 0.220330f, -0.005155f, 0.094519f, -0.115143f, 0.025405f, -0.130338f, 0.206371f, -0.228504f, -0.011998f, 0.556328f, 0.018635f, 0.296158f, 0.036909f, -0.093086f, -0.296981f, -0.067828f, -0.293935f, -0.234695f, 0.004561f, -0.262370f, 0.266894f, 0.177563f, -0.159027f, 0.096525f, 0.092562f, -0.009629f, 0.025260f, 0.218890f, 0.086084f, 0.019399f, -0.116604f, -0.018767f, 0.169553f, 0.139659f, 0.211828f, 0.050456f, 0.486904f, 0.176352f, -0.206489f, 0.336345f, -0.153802f, -0.015121f, 0.058730f, -0.185880f, 0.092496f, -0.048169f, 0.216681f, 0.160365f, 0.038823f, -0.271336f, 0.021677f, -0.138744f, -0.146741f, 0.230566f, 0.113436f, 0.098531f, 0.206119f, 0.193077f, -0.007002f, 0.148558f, 0.195502f, 0.163640f, 0.088761f, 0.201407f, -0.096381f, 0.052611f, -0.328448f, -0.369592f, 0.149211f, -0.186307f, -0.061205f, -0.127870f, 0.041530f, 0.109385f, 0.040842f, 0.192483f };
static const float smart_transformer_fault_detection_layer_1_biases[384] = { 0.309951f, -0.248458f, 0.107857f, -0.019547f, 0.009690f, -0.193465f, 0.442364f, -0.225098f, 0.309378f, 0.397241f, 0.338624f, -0.317052f, -0.088349f, -0.113814f, -0.440291f, -0.028894f, 0.463302f, 0.376071f, -0.209336f, -0.078416f, 0.532137f, -0.293085f, 0.055883f, 0.025502f, -0.173268f, -0.398100f, 0.209017f, 0.430414f, 0.270573f, 0.107050f, -0.108489f, 0.144723f, 0.244856f, -0.253152f, 0.041854f, -0.404193f, 0.165537f, 0.049959f, 0.154303f, 0.061287f, -0.270334f, -0.043504f, 0.377101f, 0.032928f, -0.370717f, 0.173790f, 0.079492f, -0.004623f, 0.063065f, 0.459806f, -0.357471f, 0.494832f, 0.445575f, -0.161288f, 0.130333f, -0.084340f, 0.022021f, 0.492548f, 0.201530f, -0.517793f, 0.014367f, -0.046073f, -0.151646f, 0.204639f, 0.107449f, 0.038914f, -0.029453f, -0.034577f, 0.212657f, -0.100137f, 0.159580f, -0.033021f, 0.033738f, -0.138208f, -0.243488f, 0.132269f, 0.034146f, -0.450576f, 0.514399f, 0.364358f, 0.537278f, 0.002105f, 0.187844f, -0.080364f, 0.150524f, -0.002372f, -0.135815f, 0.254277f, 0.060029f, -0.119036f, 0.517613f, -0.096217f, 0.031785f, -0.067996f, -0.048767f, 0.249685f, -0.154762f, -0.437347f, 0.141849f, 0.385651f, 0.064094f, 0.011048f, -0.283621f, 0.445756f, 0.404981f, 0.265397f, -0.416278f, -0.118779f, 0.083251f, 0.372222f, 0.381311f, -0.097605f, 0.069537f, -0.343632f, -0.373727f, -0.456864f, -0.017292f, -0.244907f, 0.030896f, -0.195601f, -0.254409f, -0.038769f, -0.063054f, 0.282037f, 0.006045f, -0.120603f, -0.075728f, -0.033629f, -0.197925f, 0.138728f, -0.237970f, -0.063881f, 0.162025f, 0.007363f, 0.112653f, 0.274420f, 0.092152f, 0.147298f, 0.042962f, -0.211169f, -0.217233f, -0.021705f, -0.214118f, -0.153426f, -0.063039f, -0.410703f, 0.070221f, -0.259238f, 0.145064f, 0.156394f, -0.222111f, 0.385937f, 0.288342f, 0.058901f, -0.294061f, 0.215081f, -0.104406f, -0.460409f, -0.139699f, -0.060680f, 0.099812f, -0.373420f, 0.212094f, 0.321068f, -0.098521f, 0.310121f, 0.004976f, 0.282590f, 0.088375f, 0.010652f, -0.097403f, -0.015901f, 0.050249f, -0.107900f, -0.338272f, -0.117894f, -0.296367f, 0.186065f, -0.341342f, -0.177786f, 0.574664f, 0.374207f, 0.069764f, -0.301147f, -0.108884f, 0.096233f, -0.203975f, -0.188163f, -0.123936f, 0.539542f, -0.112359f, -0.099887f, -0.551497f, -0.040848f, 0.212763f, -0.024836f, 0.116859f, -0.180519f, -0.115826f, 0.451881f, 0.236252f, 0.135052f, -0.285795f, -0.479591f, 0.207688f, -0.088687f, -0.109498f, 0.408048f, 0.147165f, 0.170999f, 0.012940f, -0.108412f, -0.088888f, -0.077515f, -0.521457f, -0.088579f, -0.004657f, 0.017068f, 0.135879f, -0.466487f, 0.509526f, 0.158427f, -0.054087f, 0.161296f, -0.106938f, 0.153046f, 0.069809f, 0.050967f, 0.032415f, 0.061437f, -0.308700f, 0.129471f, 0.069918f, -0.376601f, -0.526788f, 0.277750f, -0.381236f, 0.542015f, -0.093649f, 0.209953f, 0.307425f, 0.478124f, 0.234762f, -0.239762f, -0.040575f, 0.018508f, 0.054631f, 0.072676f, 0.152845f, 0.137134f, 0.181266f, -0.014636f, -0.191615f, -0.011929f, 0.266634f, -0.138148f, -0.363379f, 0.511781f, 0.339685f, -0.543840f, -0.093243f, -0.014850f, 0.251101f, -0.300366f, 0.005741f, 0.242394f, 0.101333f, 0.242807f, 0.077243f, 0.336055f, -0.224207f, -0.093151f, 0.176643f, -0.189154f, 0.150496f, 0.110067f, -0.097007f, -0.196268f, -0.456865f, -0.048434f, 0.053272f, 0.112585f, -0.006731f, -0.268588f, 0.560915f, -0.108997f, 0.585292f, -0.274713f, -0.362721f, -0.035963f, 0.146867f, -0.225634f, 0.483367f, -0.036636f, 0.437128f, -0.131126f, 0.249446f, -0.074211f, 0.312036f, -0.225883f, -0.021146f, -0.378847f, -0.007601f, 0.088130f, 0.348886f, -0.418503f, 0.092739f, -0.028727f, 0.126821f, -0.126312f, 0.140229f, -0.405895f, 0.248364f, 0.170809f, -0.312003f, 0.534129f, 0.212377f, 0.051917f, 0.418648f, 0.041546f, 0.040793f, 0.180635f, 0.011592f, -0.353083f, 0.485260f, 0.117866f, -0.187140f, -0.001486f, 0.091380f, 0.058900f, 0.117458f, 0.325013f, 0.415695f, 0.533934f, 0.091439f, -0.007987f, -0.088212f, 0.181681f, -0.276026f, -0.450452f, -0.158172f, 0.177674f, 0.110485f, 0.268144f, 0.214804f, -0.061993f, 0.282880f, 0.108079f, 0.068352f, -0.078652f, -0.431616f, -0.095965f, -0.268034f, -0.305805f, 0.219309f, 0.080151f, 0.475098f, -0.423023f, -0.506309f, -0.102647f, 0.137280f, -0.145386f, -0.124025f, -0.068013f, -0.001057f, -0.024274f, 0.015074f, -0.019659f, 0.085343f, -0.240614f, -0.063103f, -0.343457f, 0.177144f, -0.240215f, -0.529159f, 0.052606f, -0.426423f, 0.005841f, -0.420694f, -0.128946f, 0.093453f, -0.076431f, 0.155665f, 0.308670f };
static const float smart_transformer_fault_detection_layer_1_weights[24576] = { -0.005100f, -0.025040f, 0.069648f, -0.049982f, 0.024726f, -0.073179f, -0.073095f, -0.041863f, -0.092794f, 0.089726f, 0.051832f, -0.052145f, -0.079028f, 0.065608f, 0.071842f, -0.120680f, 0.073031f, -0.072444f, 0.026796f, 0.063233f, -0.086844f, 0.059761f, 0.045435f, -0.037405f, 0.075028f, 0.006824f, 0.086639f, 0.156356f, -0.131044f, -0.083674f, -0.064049f, 0.013042f, -0.005734f, 0.066702f, 0.061726f, 0.123766f, 0.079210f, -0.028606f, -0.104109f, 0.126168f, -0.062833f, -0.017144f, 0.091796f, 0.041517f, 0.050439f, -0.126888f, 0.020620f, 0.012943f, 0.030359f, -0.102212f, -0.052217f, -0.045046f, -0.013965f, -0.028173f, 0.009312f, 0.057217f, 0.104872f, -0.066723f, -0.124109f, 0.088923f, -0.050985f, 0.019158f, 0.121889f, 0.095437f, 0.103940f, -0.061286f, 0.000841f, -0.059206f, 0.076294f, 0.007569f, -0.036360f, -0.009133f, 0.010236f, -0.072572f, 0.102104f, -0.068123f, -0.088412f, 0.010927f, -0.027042f, -0.059916f, -0.126252f, 0.068257f, -0.116287f, -0.019415f, -0.009201f, 0.025670f, 0.064478f, -0.050564f, -0.029970f, -0.027635f, -0.057820f, 0.001215f, 0.055880f, -0.126460f, -0.082066f, 0.038156f, 0.093906f, 0.137302f, 0.067973f, -0.043116f, 0.082186f, 0.078698f, -0.107496f, -0.109557f, 0.004742f, 0.068239f, 0.029256f, -0.030475f, -0.001491f, -0.025003f, -0.015658f, -0.064958f, -0.002053f, -0.060827f, -0.112722f, 0.046198f, 0.069117f, -0.017575f, -0.047124f, 0.056490f, 0.008174f, 0.086718f, 0.122941f, -0.043252f, 0.031767f, 0.113666f, 0.092441f, 0.071203f, 0.039430f, -0.016555f, 0.006901f, 0.033426f, 0.015047f, -0.044875f, 0.027933f, -0.033914f, -0.006770f, -0.050511f, -0.010623f, 0.044171f, 0.092155f, -0.074913f, 0.062249f, -0.062883f, 0.055070f, -0.000633f, -0.078784f, 0.036510f, -0.047165f, -0.076475f, 0.005014f, 0.023056f, -0.125417f, 0.111256f, 0.102405f, 0.107724f, 0.080758f, -0.070849f, 0.086798f, -0.014836f, 0.059319f, -0.101827f, -0.048522f, -0.065696f, 0.027872f, -0.091375f, -0.031054f, 0.038177f, -0.085358f, 0.042404f, 0.005261f, -0.021651f, -0.051217f, -0.050927f, 0.098128f, -0.071341f, -0.004654f, 0.082312f, 0.025038f, -0.082668f, -0.016111f, 0.000725f, -0.010890f, 0.088782f, -0.094796f, 0.101061f, 0.005980f, -0.058882f, -0.092800f, 0.015546f, 0.051447f, -0.124146f, 0.054613f, -0.076119f, -0.103541f, -0.039231f, 0.017174f, 0.027467f, -0.069969f, -0.044859f, 0.009551f, 0.061742f, -0.002251f, -0.008867f, 0.091814f, 0.100490f, 0.064916f, -0.068610f, -0.066604f, 0.010787f, -0.056157f, -0.066119f, -0.013655f, -0.105316f, -0.010328f, 0.077970f, -0.015390f, 0.035249f, 0.073639f, 0.026035f, -0.046847f, -0.084607f, 0.014217f, -0.087408f, -0.037360f, 0.079086f, 0.104493f, -0.062371f, 0.038069f, -0.090153f, -0.082170f, 0.034539f, -0.088185f, 0.004439f, -0.003273f, 0.064184f, -0.044863f, -0.112014f, 0.080940f, -0.090314f, 0.043633f, 0.091444f, -0.042877f, 0.079546f, 0.080094f, -0.029154f, -0.029824f, 0.117875f, 0.057702f, -0.085224f, 0.038750f, 0.092275f, 0.036940f, 0.034367f, -0.045456f, 0.125569f, -0.018779f, 0.044793f, -0.049487f, 0.079729f, -0.062870f, 0.103278f, 0.039723f, 0.084548f, 0.050112f, -0.096517f, -0.003077f, 0.008636f, -0.040422f, 0.061416f, 0.058371f, 0.082898f, -0.095671f, -0.075075f, -0.027971f, 0.071322f, -0.092824f, 0.015072f, 0.108015f, -0.019340f, -0.065636f, 0.074090f, 0.094483f, -0.035994f, 0.099555f, 0.106077f, -0.110111f, 0.136939f, -0.120259f, 0.096078f, -0.069143f, 0.033923f, -0.049435f, -0.102242f, -0.045031f, -0.074454f, -0.053073f, -0.029303f, 0.082900f, -0.088359f, 0.057753f, -0.151435f, 0.001364f, -0.012368f, -0.025117f, 0.044524f, 0.086586f, 0.024009f, -0.108932f, -0.095884f, 0.028985f, -0.081163f, -0.090974f, -0.124039f, -0.086694f, -0.118383f, 0.029278f, -0.040362f, 0.048796f, -0.041327f, -0.086096f, -0.074369f, -0.112057f, -0.121744f, -0.101328f, 0.055244f, -0.096431f, 0.117310f, 0.054903f, 0.023380f, -0.103507f, -0.032798f, -0.115315f, -0.111895f, 0.054037f, 0.030697f, 0.127732f, -0.113611f, -0.045315f, 0.054016f, 0.004974f, -0.028614f, -0.134974f, 0.078943f, -0.050244f, 0.078355f, 0.056110f, -0.124190f, -0.070700f, 0.033432f, -0.119098f, 0.059554f, 0.002018f, 0.049559f, 0.048483f, 0.088513f, 0.043648f, 0.068785f, -0.039402f, -0.051392f, -0.152528f, -0.074048f, 0.004544f, -0.049693f, 0.012567f, -0.019678f, 0.063622f, -0.053988f, 0.095395f, 0.050362f, -0.074044f, -0.043849f, -0.041404f, 0.090492f, 0.093142f, 0.011889f, 0.024258f, -0.118523f, -0.047835f, -0.071811f, -0.017863f, 0.076784f, -0.030831f, -0.096996f, -0.095772f, -0.109328f, 0.129561f, 0.078336f, -0.132462f, -0.012651f, 0.066835f, -0.054270f, 0.096985f, -0.106965f, 0.126779f, 0.038718f, 0.015407f, -0.053532f, -0.031475f, 0.062467f, 0.121164f, -0.018782f, 0.055721f, 0.023309f, -0.109635f, 0.081450f, -0.000719f, 0.000099f, -0.027091f, -0.087506f, -0.054600f, 0.081673f, 0.067772f, 0.114634f, 0.000970f, 0.121990f, 0.142657f, 0.093381f, -0.109329f, 0.104228f, 0.099831f, 0.070219f, -0.093499f, 0.086184f, 0.085999f, -0.041544f, 0.026065f, 0.099424f, -0.009727f, -0.019759f, 0.019260f, 0.061343f, 0.022697f, 0.009812f, -0.060663f, -0.099561f, 0.053346f, -0.051296f, 0.113229f, 0.039887f, -0.103952f, 0.031183f, -0.068988f, -0.058402f, 0.020084f, 0.075084f, -0.093600f, -0.097622f, 0.085794f, 0.064297f, 0.018668f, 0.067432f, 0.020641f, 0.024051f, 0.051120f, -0.067345f, -0.039535f, 0.002764f, -0.019040f, 0.133364f, 0.081079f, 0.139062f, -0.002919f, 0.096091f, -0.015284f, 0.019858f, -0.005271f, 0.074925f, 0.012463f, 0.047487f, -0.004294f, -0.000309f, 0.026658f, -0.069931f, -0.088797f, 0.002158f, 0.070855f, 0.020246f, -0.039117f, -0.000478f, -0.036843f, 0.003111f, 0.052131f, 0.013762f, -0.081345f, 0.084655f, 0.109552f, 0.065743f, 0.022872f, 0.121367f, 0.039075f, -0.057371f, 0.051522f, 0.021054f, 0.087482f, -0.023718f, 0.088652f, 0.061313f, 0.116583f, 0.005891f, -0.084958f, -0.079383f, 0.039933f, -0.120295f, 0.053449f, -0.062690f, -0.068213f, -0.069042f, 0.069144f, -0.079453f, -0.006131f, 0.060846f, -0.110850f, -0.112618f, 0.054278f, 0.031518f, 0.063847f, 0.069995f, 0.084172f, 0.092767f, -0.032652f, -0.103793f, 0.058555f, 0.001394f, -0.020626f, 0.016315f, -0.131974f, -0.098810f, -0.070058f, 0.057345f, 0.002965f, -0.092066f, -0.073308f, -0.053438f, 0.040481f, -0.072635f, 0.042924f, 0.052692f, 0.011006f, -0.047192f, -0.071553f, 0.066420f, -0.096763f, 0.134556f, -0.059382f, 0.114754f, -0.124879f, 0.081313f, -0.054399f, 0.067315f, -0.077278f, -0.114410f, -0.104750f, -0.062109f, -0.072322f, -0.087309f, 0.129980f, 0.027609f, -0.053734f, -0.096283f, -0.059805f, -0.006194f, -0.101588f, -0.043589f, -0.146910f, -0.050286f, 0.088860f, 0.085431f, 0.157916f, -0.086147f, 0.015452f, -0.001825f, -0.027196f, -0.129262f, 0.015065f, -0.035577f, -0.048194f, -0.102357f, -0.076692f, -0.098192f, 0.131515f, 0.024647f, 0.046751f, 0.035935f, 0.109094f, -0.082395f, 0.019792f, 0.114816f, 0.073275f, 0.048448f, 0.041804f, 0.010447f, -0.006122f, 0.095524f, 0.099369f, 0.093183f, 0.052401f, -0.036331f, -0.046909f, -0.115849f, -0.103279f, 0.142849f, 0.048824f, -0.101598f, -0.077582f, -0.019887f, 0.004818f, -0.102942f, -0.120068f, -0.026677f, 0.102399f, -0.069370f, 0.098039f, 0.077907f, 0.119819f, 0.066064f, -0.010121f, 0.015258f, 0.010600f, 0.096522f, -0.029788f, -0.051809f, 0.129195f, -0.071984f, -0.073949f, 0.100309f, -0.005344f, -0.066894f, 0.112091f, 0.119179f, -0.073351f, 0.085460f, -0.027781f, 0.067058f, 0.017404f, 0.075683f, 0.014740f, 0.098852f, -0.049657f, 0.019068f, -0.065241f, -0.043702f, 0.086460f, 0.051954f, 0.025969f, -0.077612f, -0.057677f, -0.032771f, -0.102834f, -0.007240f, -0.080932f, -0.037618f, 0.092512f, -0.092170f, -0.051218f, -0.118118f, -0.040800f, -0.050708f, 0.080672f, 0.062880f, -0.020017f, -0.013467f, -0.102712f, 0.058521f, 0.056665f, 0.020771f, -0.027117f, 0.045176f, 0.037536f, -0.033264f, 0.023318f, 0.100611f, -0.108412f, 0.051559f, 0.060533f, -0.000163f, -0.084265f, 0.127005f, 0.015931f, 0.052269f, -0.008683f, -0.013597f, -0.100238f, -0.100378f, -0.011809f, 0.100136f, -0.021737f, -0.024003f, -0.056760f, -0.148647f, 0.111757f, -0.006714f, 0.046008f, -0.043224f, -0.066900f, 0.060665f, -0.061295f, 0.047415f, 0.046572f, 0.080081f, 0.050418f, -0.056657f, -0.014885f, 0.028924f, 0.023368f, 0.003644f, 0.039637f, 0.044150f, 0.065144f, -0.029083f, 0.017835f, -0.004251f, 0.034049f, 0.034691f, -0.053021f, 0.021554f, -0.078738f, 0.111257f, -0.107917f, 0.132442f, -0.010471f, 0.020062f, -0.066569f, 0.107962f, -0.070279f, -0.012137f, 0.102803f, -0.082909f, 0.117960f, -0.112162f, -0.068775f, 0.082433f, -0.070428f, 0.110368f, 0.048259f, -0.108540f, 0.069364f, -0.013274f, 0.107085f, -0.043652f, 0.090334f, -0.084064f, 0.094225f, 0.001656f, -0.014836f, -0.033624f, 0.048439f, 0.054450f, 0.042886f, 0.036554f, 0.044447f, 0.018582f, 0.037137f, -0.128979f, -0.062743f, 0.032841f, -0.095401f, 0.111232f, 0.044663f, -0.013528f, 0.035046f, 0.026642f, 0.099256f, 0.051914f, 0.034870f, 0.008193f, 0.055007f, 0.000578f, 0.054201f, -0.030193f, -0.025002f, -0.068069f, -0.100289f, 0.044790f, 0.087360f, 0.041175f, 0.082597f, 0.000188f, 0.102204f, -0.075966f, 0.109922f, 0.088167f, 0.100584f, -0.094463f, -0.032206f, 0.133663f, 0.101718f, 0.005600f, -0.043501f, -0.017980f, -0.040417f, -0.058296f, 0.037979f, -0.104039f, -0.003843f, 0.063608f, 0.015136f, -0.084329f, -0.104186f, 0.060688f, -0.087959f, 0.062140f, -0.092595f, 0.080078f, 0.090463f, -0.085735f, 0.077673f, -0.033694f, -0.021567f, -0.069885f, -0.013875f, -0.117206f, -0.024757f, -0.100724f, -0.112451f, -0.080799f, 0.074108f, -0.024664f, -0.061035f, 0.012434f, -0.041607f, -0.073912f, 0.052361f, 0.090724f, -0.032736f, 0.056035f, 0.087661f, 0.107347f, 0.106210f, -0.026800f, -0.013195f, -0.084484f, 0.043121f, 0.109274f, -0.014770f, 0.063841f, -0.084590f, 0.051289f, -0.025179f, -0.067507f, 0.001815f, 0.026402f, -0.068808f, 0.078660f, -0.076251f, 0.079736f, 0.063854f, 0.032253f, -0.085778f, 0.034300f, -0.080583f, -0.032166f, -0.066675f, 0.031590f, 0.038833f, 0.052937f, 0.080437f, -0.091141f, 0.071399f, 0.096811f, 0.067849f, 0.092388f, 0.013808f, 0.099571f, 0.022443f, -0.063609f, 0.108092f, 0.047669f, 0.099018f, 0.009397f, -0.079627f, -0.019314f, 0.091907f, 0.025879f, -0.085680f, -0.046280f, 0.035372f, 0.089579f, 0.064896f, -0.034623f, -0.045872f, -0.026460f, 0.070647f, -0.071730f, -0.036064f, 0.068814f, 0.043331f, 0.063338f, -0.048777f, -0.014598f, 0.057327f, 0.023755f, -0.001411f, 0.095204f, -0.058868f, -0.100237f, 0.080376f, -0.101683f, 0.024726f, -0.000496f, -0.008255f, 0.094168f, -0.063556f, -0.111030f, -0.086734f, -0.018520f, 0.000514f, 0.028371f, -0.034685f, -0.054744f, 0.092208f, 0.035385f, 0.047908f, 0.137033f, 0.088773f, 0.027865f, 0.027252f, 0.091244f, -0.018944f, -0.099825f, 0.106626f, -0.030895f, -0.035017f, 0.087154f, 0.082351f, -0.004999f, -0.100882f, -0.018374f, -0.051205f, -0.027024f, 0.102966f, -0.095560f, 0.102612f, -0.078070f, -0.045980f, -0.086077f, -0.052379f, 0.049674f, 0.059942f, -0.016506f, -0.063320f, 0.076809f, 0.063496f, -0.043821f, 0.074095f, -0.103071f, 0.090423f, -0.104175f, -0.107128f, 0.059330f, -0.043775f, 0.014311f, -0.025856f, 0.088197f, 0.078282f, 0.094660f, -0.085494f, 0.099591f, -0.070522f, 0.010979f, -0.022116f, -0.048243f, -0.060350f, 0.049612f, 0.030451f, -0.086456f, -0.100782f, 0.031907f, 0.094162f, -0.100434f, -0.017186f, 0.030671f, 0.037708f, 0.101843f, 0.027426f, -0.015188f, -0.015966f, -0.091032f, -0.046826f, 0.091931f, -0.027614f, 0.099356f, 0.076411f, -0.060580f, -0.074516f, -0.044752f, 0.058320f, 0.025087f, 0.095456f, 0.105185f, 0.093937f, 0.075157f, 0.054215f, -0.082797f, 0.085149f, -0.096587f, -0.099892f, -0.108126f, -0.107620f, -0.072473f, -0.107581f, -0.069763f, 0.038397f, 0.072611f, -0.067511f, -0.088495f, -0.038418f, -0.032267f, 0.011529f, 0.115788f, -0.094962f, 0.012851f, 0.101985f, -0.021874f, -0.081490f, -0.016753f, -0.083268f, 0.088256f, -0.024895f, -0.012918f, 0.051210f, -0.037905f, 0.068054f, 0.114195f, -0.052333f, 0.042913f, -0.034020f, -0.042180f, 0.055886f, -0.118483f, -0.014651f, 0.102499f, -0.071281f, -0.108940f, 0.004785f, 0.033278f, 0.001998f, -0.031171f, 0.104676f, -0.061630f, -0.025684f, -0.100599f, -0.089068f, 0.010866f, -0.008492f, 0.094587f, -0.040973f, -0.025616f, -0.040708f, 0.057479f, 0.010183f, -0.043718f, -0.006377f, -0.039955f, 0.063709f, -0.125885f, -0.041611f, 0.016989f, -0.007691f, -0.056554f, 0.039098f, -0.076989f, -0.046860f, -0.002882f, -0.099895f, 0.001565f, 0.076209f, 0.099889f, -0.000188f, 0.013768f, -0.090535f, -0.066887f, -0.097230f, 0.102470f, 0.109680f, 0.082068f, -0.027297f, 0.115345f, -0.003499f, 0.009062f, -0.047558f, -0.053293f, -0.116136f, 0.061733f, 0.019377f, -0.029692f, -0.016698f, -0.091105f, -0.100083f, 0.092462f, 0.102775f, -0.066455f, -0.073719f, -0.056662f, -0.002569f, -0.031052f, 0.033186f, -0.065890f, -0.004780f, -0.113037f, 0.051839f, 0.042038f, 0.094322f, 0.029969f, 0.033057f, 0.056929f, 0.106038f, 0.058042f, -0.065222f, 0.068607f, -0.002368f, -0.051727f, -0.069984f, -0.070954f, 0.064450f, 0.080467f, 0.021903f, -0.027724f, -0.037275f, -0.062544f, 0.032200f, -0.107234f, 0.015767f, 0.029802f, -0.043413f, -0.070573f, -0.028974f, 0.079068f, -0.057043f, 0.003248f, -0.069682f, 0.053991f, -0.101631f, -0.040406f, -0.010150f, 0.066474f, -0.101691f, -0.096582f, -0.055477f, -0.040473f, -0.030721f, 0.075922f, 0.102726f, 0.052280f, -0.067778f, -0.043593f, 0.024799f, 0.014578f, -0.003982f, -0.043963f, 0.073722f, 0.091371f, -0.015363f, -0.032799f, 0.008500f, 0.092149f, -0.058598f, 0.101420f, 0.048971f, -0.031541f, 0.041897f, 0.030513f, -0.089643f, 0.081216f, -0.104233f, -0.032315f, -0.002979f, -0.031979f, -0.033082f, -0.048996f, -0.070778f, -0.011897f, 0.042605f, -0.040922f, 0.056881f, 0.054434f, 0.059912f, -0.127746f, 0.006045f, 0.000948f, -0.074880f, -0.034353f, -0.051344f, 0.051787f, 0.108490f, -0.022931f, 0.058086f, 0.077921f, 0.044034f, 0.081693f, 0.062654f, -0.015561f, 0.033941f, 0.012410f, -0.089408f, -0.037986f, -0.143413f, -0.081045f, -0.050888f, -0.026194f, -0.092100f, 0.137214f, -0.101151f, -0.053664f, -0.082974f, 0.104525f, -0.082147f, -0.009947f, 0.075125f, -0.094744f, -0.078579f, 0.100311f, -0.075787f, -0.053988f, 0.115653f, -0.093257f, -0.114390f, 0.037216f, -0.000321f, -0.020143f, -0.008779f, 0.065188f, -0.077515f, -0.080618f, 0.107384f, 0.088115f, 0.070491f, 0.058864f, 0.054266f, 0.172509f, -0.065479f, -0.041148f, 0.089270f, -0.027914f, -0.096411f, 0.019845f, -0.080611f, 0.124803f, 0.017664f, -0.010159f, 0.101195f, 0.088811f, -0.163769f, 0.003750f, 0.017176f, -0.071705f, 0.104660f, -0.102019f, -0.089175f, 0.049367f, 0.032300f, -0.057930f, 0.036598f, -0.004942f, 0.022713f, -0.012681f, 0.119876f, 0.042648f, -0.107389f, -0.048219f, -0.112812f, 0.066730f, 0.079945f, -0.091000f, -0.071421f, -0.092574f, -0.001749f, -0.161471f, 0.038605f, -0.003106f, 0.064357f, 0.081279f, 0.079549f, 0.058263f, 0.021099f, 0.019767f, 0.009412f, -0.059822f, -0.003094f, -0.007124f, 0.006326f, 0.014138f, -0.046455f, 0.008697f, -0.108334f, -0.122147f, 0.018386f, 0.066656f, 0.017627f, -0.101666f, 0.031541f, -0.046006f, 0.099543f, -0.071600f, 0.010269f, 0.091712f, -0.080664f, 0.048119f, 0.076781f, -0.012849f, 0.083810f, -0.021193f, 0.013715f, 0.044821f, 0.008170f, -0.036739f, -0.046050f, -0.009330f, -0.038986f, 0.074144f, 0.051997f, 0.116418f, 0.052831f, 0.114631f, 0.094769f, -0.033997f, 0.042717f, -0.031038f, -0.039743f, 0.090022f, 0.045489f, -0.097988f, -0.075229f, -0.052285f, -0.094247f, 0.095532f, 0.018985f, 0.064422f, 0.041190f, -0.113443f, -0.069974f, 0.042651f, -0.092381f, -0.131407f, -0.023355f, -0.122800f, -0.087604f, -0.067358f, -0.052149f, -0.061347f, 0.052642f, 0.167405f, 0.060026f, 0.025973f, -0.150079f, 0.007959f, 0.036999f, -0.104901f, 0.092691f, 0.009998f, -0.068855f, 0.053338f, 0.093005f, -0.014504f, 0.068402f, 0.050968f, 0.072710f, 0.098193f, 0.007979f, 0.066660f, 0.064620f, -0.059736f, 0.011570f, -0.072032f, -0.099973f, 0.021489f, 0.011731f, 0.072030f, 0.071018f, 0.030384f, 0.040802f, -0.002382f, -0.094041f, -0.082641f, -0.082873f, -0.067288f, -0.006025f, -0.094122f, -0.047024f, -0.109914f, -0.104061f, -0.034832f, 0.131306f, -0.087187f, 0.069687f, -0.007351f, -0.109236f, -0.070066f, 0.033312f, -0.078340f, -0.054388f, 0.020748f, 0.037923f, -0.130006f, -0.071513f, -0.081395f, -0.031541f, 0.069332f, -0.020867f, -0.000674f, 0.019405f, 0.012640f, 0.003136f, 0.064432f, -0.061008f, -0.039466f, 0.027854f, -0.066994f, 0.119105f, -0.051929f, -0.068180f, -0.059385f, 0.111742f, -0.022917f, -0.000480f, -0.014798f, 0.079508f, -0.074639f, 0.035870f, 0.045741f, -0.008410f, 0.111008f, -0.026874f, -0.079624f, -0.044323f, 0.028939f, 0.098244f, 0.058919f, 0.020800f, -0.060275f, -0.056815f, -0.016568f, -0.129899f, -0.048244f, -0.080331f, 0.015624f, 0.023998f, 0.007882f, 0.026489f, -0.041317f, 0.129805f, 0.022127f, -0.017258f, 0.087875f, -0.105211f, -0.014291f, -0.049525f, 0.075594f, -0.124151f, 0.047125f, -0.054901f, 0.053644f, -0.077265f, 0.023918f, 0.083435f, 0.072850f, -0.108701f, 0.129313f, -0.059628f, 0.081602f, 0.014580f, 0.021893f, -0.013686f, -0.036039f, -0.074156f, 0.036829f, -0.051400f, 0.127162f, 0.039508f, -0.059492f, 0.001994f, -0.003638f, 0.055134f, 0.067332f, 0.020104f, -0.000454f, 0.022027f, -0.076562f, 0.078890f, 0.095507f, 0.013034f, -0.047948f, 0.042258f, -0.086269f, -0.039962f, 0.092248f, 0.066380f, 0.035845f, 0.018926f, -0.152027f, 0.170386f, -0.010323f, -0.011734f, -0.121204f, -0.042410f, -0.110078f, 0.098083f, 0.073304f, 0.047968f, -0.021177f, 0.074092f, -0.049214f, 0.128046f, 0.000450f, -0.054694f, 0.013055f, -0.027001f, -0.003286f, 0.005579f, -0.137996f, -0.022221f, -0.012930f, -0.038577f, -0.059307f, 0.091535f, -0.043577f, 0.036032f, 0.014225f, -0.037396f, 0.079770f, -0.000935f, -0.152624f, -0.115794f, 0.084305f, 0.123341f, -0.049168f, 0.031788f, 0.008286f, 0.019192f, 0.102135f, -0.055623f, -0.051428f, 0.085234f, 0.108407f, 0.109445f, -0.001681f, -0.074301f, 0.071916f, -0.023280f, 0.104331f, -0.089844f, -0.095731f, 0.133634f, 0.013034f, 0.070568f, 0.091006f, 0.089172f, -0.041994f, 0.077669f, 0.030709f, 0.021703f, -0.074667f, -0.003967f, -0.078596f, -0.069716f, -0.043488f, 0.016189f, -0.073305f, 0.011152f, -0.034822f, 0.058965f, 0.026922f, 0.076285f, 0.073855f, 0.006453f, 0.081676f, 0.063164f, 0.075351f, 0.036550f, -0.116278f, -0.059859f, 0.061517f, 0.031661f, 0.077147f, -0.074408f, 0.035652f, 0.037754f, 0.080098f, -0.038675f, -0.080242f, -0.120431f, 0.079730f, 0.076813f, -0.091888f, 0.019008f, 0.128932f, 0.059668f, -0.096756f, -0.100000f, -0.033744f, -0.071525f, 0.085714f, -0.035969f, -0.131499f, -0.068616f, -0.080948f, -0.087449f, 0.012105f, -0.080216f, -0.124770f, 0.068772f, -0.027386f, -0.112171f, 0.077387f, 0.015349f, 0.100189f, -0.032710f, -0.026509f, 0.086468f, -0.078372f, -0.011281f, 0.019588f, -0.068376f, 0.108691f, -0.048399f, 0.096714f, 0.045730f, -0.082709f, 0.046101f, -0.003486f, 0.074588f, -0.070749f, -0.031013f, -0.015300f, 0.024087f, 0.115693f, -0.000219f, -0.041686f, 0.049290f, 0.084325f, 0.033656f, 0.054073f, 0.016072f, -0.091099f, 0.067252f, 0.006029f, 0.039021f, -0.037788f, 0.130632f, -0.011503f, -0.106726f, 0.042735f, 0.107212f, 0.079204f, 0.075625f, -0.050825f, 0.004721f, -0.094205f, -0.023551f, -0.072448f, -0.030062f, -0.008154f, -0.029922f, -0.090911f, -0.035469f, 0.010217f, 0.059659f, 0.078651f, -0.088656f, 0.032375f, -0.029689f, 0.070899f, -0.015470f, -0.020884f, 0.059953f, 0.080589f, -0.063014f, -0.061816f, -0.060766f, -0.121780f, 0.098671f, -0.039140f, 0.098500f, -0.027476f, -0.095250f, 0.103843f, 0.057126f, 0.026030f, -0.000372f, 0.011485f, -0.020834f, 0.088760f, -0.064986f, 0.029887f, -0.092460f, 0.093621f, 0.005699f, 0.029381f, -0.001619f, -0.000895f, -0.084914f, -0.107247f, 0.074322f, 0.081608f, -0.026703f, 0.069387f, 0.006578f, -0.024574f, -0.085849f, 0.019266f, 0.016419f, 0.009164f, 0.052602f, 0.081470f, -0.043068f, 0.035531f, -0.027265f, -0.009475f, 0.017005f, -0.082648f, -0.113820f, -0.053584f, 0.078135f, -0.005245f, 0.031198f, -0.006375f, -0.129386f, -0.089238f, -0.005361f, -0.020951f, -0.069743f, 0.015016f, 0.057103f, 0.068794f, -0.059750f, 0.090643f, -0.051378f, 0.016139f, 0.068396f, 0.020376f, 0.055835f, -0.032675f, 0.048360f, -0.011566f, 0.073917f, -0.010630f, 0.006353f, 0.050361f, -0.045172f, -0.038231f, 0.073452f, -0.105700f, -0.010614f, 0.029891f, -0.093913f, 0.095255f, 0.101886f, 0.110776f, -0.058499f, 0.083548f, 0.000937f, -0.107188f, 0.014453f, -0.077629f, -0.021427f, -0.077348f, -0.050445f, 0.099340f, 0.069157f, -0.107223f, 0.103116f, 0.013310f, 0.019803f, -0.002778f, -0.012125f, 0.089923f, 0.093938f, -0.074600f, 0.085824f, -0.087709f, -0.121066f, -0.010220f, -0.051730f, 0.005128f, 0.053649f, -0.057029f, -0.054539f, 0.036626f, 0.024176f, 0.003736f, -0.061038f, -0.127494f, 0.030901f, 0.041501f, -0.108029f, -0.069255f, -0.044164f, -0.021765f, -0.111570f, -0.111506f, -0.081509f, 0.092365f, -0.021621f, -0.035760f, -0.068368f, 0.025994f, -0.068799f, -0.041867f, -0.107685f, -0.124509f, 0.029460f, 0.062226f, 0.072371f, 0.003701f, -0.076872f, -0.019060f, 0.052885f, -0.023643f, 0.017573f, -0.018791f, -0.113996f, -0.063426f, 0.073183f, -0.083478f, 0.013962f, 0.004216f, -0.016396f, -0.039411f, -0.027215f, -0.031869f, -0.053717f, 0.054691f, 0.053451f, 0.040645f, -0.117234f, -0.102801f, -0.022890f, -0.122936f, -0.096711f, 0.043151f, -0.089481f, 0.095086f, 0.108074f, 0.081790f, -0.067985f, -0.017342f, -0.082439f, -0.057455f, -0.067366f, -0.046988f, 0.041783f, 0.089860f, 0.019439f, -0.075073f, 0.088752f, -0.022987f, 0.084775f, 0.101820f, 0.049335f, 0.112317f, 0.032871f, 0.056455f, 0.055074f, 0.063507f, 0.000419f, 0.103790f, -0.011333f, 0.051788f, 0.011798f, 0.015867f, 0.006838f, -0.083103f, -0.002883f, 0.074857f, -0.074960f, -0.014039f, 0.011230f, -0.121097f, -0.033763f, 0.048269f, -0.047570f, 0.028320f, 0.015994f, -0.009076f, 0.076609f, -0.050173f, -0.101707f, 0.073569f, -0.068450f, -0.063370f, 0.091194f, -0.091705f, -0.048710f, 0.103064f, -0.125367f, 0.074767f, -0.094535f, -0.083870f, -0.081646f, -0.018168f, 0.047290f, 0.077474f, -0.085651f, 0.049779f, -0.109682f, 0.069122f, 0.062132f, -0.078507f, -0.103074f, 0.021189f, -0.066321f, -0.040880f, 0.073245f, -0.109999f, -0.098922f, 0.065526f, -0.020380f, 0.121288f, -0.084816f, 0.092044f, -0.024440f, 0.072712f, -0.000322f, -0.002013f, -0.018177f, -0.043209f, 0.075033f, 0.097362f, -0.000677f, -0.037910f, 0.004947f, -0.082454f, 0.084503f, 0.032579f, -0.068248f, 0.031827f, 0.037744f, -0.121550f, 0.019484f, -0.018080f, -0.054827f, -0.075959f, -0.005313f, 0.069508f, 0.071893f, 0.104794f, 0.001016f, 0.110421f, 0.068094f, -0.070523f, 0.053729f, -0.023046f, -0.000804f, -0.031674f, -0.070682f, -0.109443f, -0.066590f, 0.002824f, 0.120692f, 0.114204f, 0.088506f, 0.118167f, -0.025056f, 0.001539f, -0.013818f, 0.082673f, 0.082173f, -0.011554f, -0.054655f, -0.120515f, -0.013393f, 0.088009f, 0.041661f, 0.002421f, -0.078191f, -0.006838f, -0.024027f, 0.098298f, 0.021178f, -0.069463f, 0.098024f, -0.000751f, 0.026012f, 0.125669f, 0.030468f, -0.109495f, 0.006026f, -0.081463f, -0.014710f, -0.063544f, -0.014360f, 0.063652f, -0.117998f, 0.104034f, 0.034814f, -0.021286f, -0.045330f, 0.033390f, 0.062264f, -0.088991f, -0.007915f, 0.089790f, -0.056377f, 0.076356f, -0.068250f, 0.020203f, 0.103625f, 0.096103f, 0.052096f, 0.112043f, 0.105648f, -0.007131f, 0.005058f, 0.029289f, 0.121681f, -0.017567f, -0.001073f, 0.103784f, -0.104751f, -0.041028f, -0.109737f, -0.049389f, 0.085081f, 0.103634f, 0.025731f, -0.124075f, 0.058544f, -0.060173f, -0.028963f, 0.047442f, -0.076612f, 0.056426f, -0.053587f, 0.082398f, -0.013919f, -0.029530f, 0.053449f, 0.087553f, 0.080750f, 0.029165f, 0.060662f, -0.073389f, 0.008304f, -0.073950f, 0.004028f, -0.119237f, 0.025649f, 0.055709f, -0.091833f, -0.028575f, 0.045641f, -0.022160f, -0.124512f, -0.035796f, 0.067846f, -0.053684f, 0.031785f, -0.067520f, 0.036434f, -0.116121f, -0.071135f, -0.083929f, 0.013283f, -0.022383f, -0.036860f, 0.109975f, -0.087923f, -0.002283f, 0.024660f, 0.050257f, 0.020690f, 0.077377f, -0.134793f, -0.055466f, -0.103196f, -0.072633f, 0.091022f, -0.004342f, 0.125924f, -0.088305f, -0.060461f, 0.006998f, 0.016953f, -0.010905f, 0.027202f, -0.006878f, -0.089226f, -0.111240f, 0.098873f, -0.015334f, 0.088927f, -0.041502f, 0.038739f, -0.004342f, -0.048976f, 0.013941f, 0.005828f, 0.019611f, -0.030073f, 0.058806f, 0.107442f, -0.072674f, -0.016486f, -0.036007f, -0.052159f, -0.052487f, -0.083663f, -0.102155f, 0.081554f, -0.123776f, 0.033303f, -0.114282f, 0.040040f, 0.079855f, 0.025166f, -0.050377f, -0.084001f, -0.074992f, 0.055801f, 0.146334f, -0.111960f, -0.029206f, -0.078631f, 0.057393f, -0.062613f, -0.058622f, 0.104751f, 0.070198f, 0.069872f, -0.044806f, -0.082133f, 0.043630f, 0.017023f, -0.002439f, 0.088283f, 0.085166f, -0.087526f, -0.088508f, 0.025593f, 0.037030f, -0.045033f, 0.041967f, -0.076123f, -0.085372f, 0.104962f, 0.083216f, 0.103533f, -0.044643f, -0.059398f, -0.013757f, 0.051423f, -0.085297f, 0.017852f, -0.115913f, -0.013680f, 0.007502f, 0.084928f, 0.026429f, -0.049967f, 0.049709f, -0.085245f, 0.115284f, -0.051504f, 0.037453f, 0.006528f, -0.107612f, 0.111596f, -0.041599f, -0.085428f, -0.077499f, 0.018757f, -0.067935f, 0.134319f, -0.072749f, 0.046990f, -0.056654f, -0.036408f, -0.097854f, -0.001256f, -0.064667f, -0.087296f, 0.006938f, -0.069025f, 0.022070f, -0.050227f, -0.070451f, -0.009421f, -0.010657f, 0.073096f, -0.050042f, -0.031041f, 0.026914f, 0.023305f, -0.080202f, 0.002262f, 0.097429f, 0.089033f, -0.107387f, -0.097844f, 0.133108f, -0.088369f, -0.019574f, 0.101707f, -0.057855f, 0.027840f, -0.015330f, -0.071851f, 0.068640f, -0.033451f, 0.085172f, -0.071945f, -0.081614f, 0.019932f, 0.035853f, 0.016373f, 0.066443f, -0.019179f, 0.040086f, 0.022688f, -0.001380f, -0.049704f, 0.072075f, 0.018527f, -0.114855f, -0.077383f, -0.012469f, -0.019431f, -0.066020f, -0.086970f, 0.024088f, 0.084078f, 0.021229f, -0.084798f, -0.051649f, -0.117423f, 0.000325f, 0.123520f, 0.082852f, -0.058857f, -0.000096f, -0.048832f, 0.021147f, -0.025267f, -0.053224f, 0.080686f, 0.096817f, -0.045983f, -0.082266f, 0.079566f, -0.089272f, -0.135085f, 0.054354f, 0.050168f, -0.023049f, 0.001420f, -0.055868f, -0.023316f, -0.059558f, 0.091683f, 0.008402f, 0.078357f, -0.022223f, -0.059367f, 0.003206f, -0.094149f, 0.074719f, -0.096006f, -0.012332f, 0.105318f, 0.077452f, 0.081012f, -0.080271f, -0.060788f, -0.032421f, 0.027218f, -0.057360f, -0.011765f, 0.043701f, 0.039135f, -0.064190f, 0.100919f, 0.032737f, 0.085146f, -0.053749f, -0.095139f, -0.020142f, 0.002561f, -0.084283f, 0.010208f, -0.137718f, -0.031893f, 0.048954f, -0.033097f, 0.063802f, 0.008421f, -0.016084f, -0.047861f, -0.064579f, 0.059971f, -0.082191f, -0.067631f, -0.123025f, -0.015020f, -0.065671f, -0.071066f, 0.061664f, -0.040536f, -0.033402f, 0.021436f, -0.053133f, -0.097048f, -0.059086f, -0.038611f, -0.037463f, -0.065011f, -0.058421f, -0.118851f, 0.125296f, -0.077251f, -0.096120f, -0.095551f, 0.052808f, 0.008869f, 0.097608f, 0.041690f, 0.072552f, 0.040957f, -0.099632f, 0.041904f, -0.098374f, -0.098024f, 0.123384f, -0.002831f, -0.110953f, 0.092983f, -0.046591f, 0.054796f, 0.074045f, -0.056029f, 0.054232f, 0.100099f, -0.086774f, 0.091994f, 0.094936f, -0.093232f, -0.039817f, 0.038690f, -0.110386f, -0.066097f, -0.004421f, -0.031181f, 0.005395f, -0.051555f, -0.008876f, 0.097930f, 0.047428f, 0.036838f, 0.034472f, 0.067065f, 0.111674f, 0.116534f, 0.035108f, 0.109384f, 0.012188f, 0.054671f, 0.036116f, -0.001572f, -0.017589f, -0.000398f, 0.111219f, -0.064072f, -0.012277f, -0.094072f, -0.065173f, 0.068118f, 0.011800f, -0.118927f, 0.119803f, 0.007089f, -0.057837f, 0.118462f, 0.068896f, -0.013840f, -0.022181f, -0.119535f, 0.086102f, 0.088278f, 0.072768f, 0.057843f, 0.007864f, -0.087978f, 0.025244f, 0.034836f, -0.113361f, -0.082329f, 0.101037f, -0.011367f, -0.126533f, -0.034157f, -0.007127f, -0.104637f, -0.090596f, 0.123739f, -0.018490f, 0.022003f, 0.018719f, -0.042200f, -0.105965f, -0.090123f, 0.024350f, -0.043524f, -0.022629f, 0.007602f, 0.004510f, -0.026436f, 0.081711f, -0.091790f, 0.054422f, 0.101625f, -0.087695f, 0.063748f, 0.086410f, -0.127729f, 0.105666f, 0.092747f, 0.035434f, 0.060231f, -0.025059f, -0.082152f, -0.060718f, -0.072097f, -0.108502f, 0.100021f, 0.121480f, -0.089478f, 0.076881f, 0.000892f, 0.080891f, 0.095155f, 0.036566f, -0.073061f, 0.024830f, -0.115421f, 0.078135f, 0.023941f, 0.000125f, -0.028781f, -0.012335f, 0.064324f, 0.027001f, -0.033860f, 0.103872f, -0.073817f, 0.012383f, 0.011575f, 0.086139f, -0.104297f, -0.021498f, 0.069935f, -0.065103f, -0.064298f, -0.018795f, -0.046285f, -0.015611f, -0.072566f, -0.046666f, 0.004277f, 0.104745f, -0.082810f, -0.062018f, -0.041223f, 0.059284f, -0.071754f, -0.108425f, 0.112622f, 0.004539f, 0.068596f, 0.074014f, 0.052298f, -0.069960f, 0.094226f, 0.011912f, -0.052620f, -0.033252f, -0.112962f, 0.090748f, 0.017595f, 0.021564f, -0.092138f, 0.065132f, 0.061908f, -0.017415f, 0.097811f, -0.068590f, -0.059162f, 0.105670f, 0.112754f, -0.049988f, 0.100979f, 0.089958f, 0.075913f, -0.015523f, 0.051688f, -0.052106f, -0.009858f, -0.008177f, -0.089886f, 0.052596f, -0.083523f, -0.026968f, -0.013234f, -0.008264f, 0.037519f, 0.044287f, 0.040370f, 0.101714f, -0.016784f, 0.117062f, -0.052901f, -0.066280f, 0.117898f, -0.048483f, 0.034946f, -0.094230f, -0.104210f, 0.066633f, 0.061113f, 0.073711f, -0.073377f, -0.051676f, 0.018001f, -0.046417f, -0.036390f, -0.068123f, 0.089778f, -0.060992f, 0.008891f, -0.028642f, -0.100783f, 0.021488f, -0.050302f, 0.095344f, 0.093665f, 0.013678f, -0.024936f, 0.093785f, 0.021669f, -0.084761f, 0.019826f, -0.029108f, -0.095365f, -0.071066f, 0.017392f, 0.097539f, -0.112820f, -0.036043f, -0.027883f, 0.004708f, -0.077951f, 0.032598f, 0.066938f, 0.042766f, 0.055544f, -0.052495f, 0.042716f, 0.064249f, -0.103785f, -0.076796f, -0.034035f, -0.100407f, 0.060145f, -0.108916f, 0.129673f, -0.038984f, -0.081311f, 0.011143f, 0.067724f, -0.054070f, 0.086641f, 0.027991f, 0.023307f, 0.067337f, -0.022990f, 0.133789f, 0.081876f, 0.028335f, -0.022112f, 0.077801f, 0.071479f, -0.026208f, -0.028509f, 0.009314f, 0.038140f, 0.003567f, -0.011824f, 0.004028f, 0.009484f, -0.000631f, 0.028672f, 0.061074f, -0.089647f, 0.086047f, -0.062671f, 0.034417f, -0.023024f, -0.073263f, 0.093268f, -0.097798f, 0.011716f, 0.000123f, -0.054756f, -0.013541f, 0.095291f, -0.055676f, -0.097527f, 0.066931f, -0.099139f, 0.034431f, 0.105280f, 0.020853f, -0.079976f, -0.094936f, 0.104164f, 0.065055f, 0.071693f, -0.008903f, 0.008795f, -0.032205f, 0.055238f, 0.045405f, 0.041192f, -0.099260f, 0.011383f, 0.012185f, 0.119294f, -0.061126f, -0.001371f, -0.029943f, 0.037017f, -0.058443f, 0.086351f, -0.004273f, 0.027848f, 0.023361f, -0.110509f, 0.055168f, -0.013144f, -0.116494f, -0.026821f, -0.088245f, -0.070283f, -0.044659f, 0.065788f, 0.019963f, 0.081368f, 0.014688f, 0.095626f, 0.022040f, -0.006470f, -0.081232f, 0.044596f, 0.065330f, -0.100231f, 0.079457f, 0.099073f, 0.007220f, -0.080066f, -0.012081f, 0.043827f, 0.069648f, -0.054453f, -0.084528f, 0.095924f, 0.056724f, 0.071300f, -0.066056f, -0.062353f, 0.064857f, -0.004877f, 0.104135f, -0.076545f, 0.006005f, -0.056017f, -0.122593f, -0.082295f, -0.064514f, -0.076672f, 0.081689f, 0.000428f, -0.036098f, -0.116922f, 0.016768f, 0.077951f, 0.081530f, 0.070006f, 0.034437f, 0.079891f, 0.072351f, -0.132592f, -0.111532f, 0.067563f, 0.095231f, -0.078011f, 0.047117f, -0.029948f, -0.017993f, -0.008362f, -0.049095f, 0.035118f, 0.077361f, -0.109272f, -0.032635f, -0.033277f, -0.025207f, 0.053118f, 0.083830f, -0.082784f, 0.132673f, 0.091627f, -0.071186f, -0.077682f, 0.023434f, -0.002881f, 0.097916f, -0.065588f, -0.096008f, 0.051985f, -0.037313f, 0.099313f, 0.090517f, -0.058632f, 0.082379f, -0.087717f, -0.075498f, 0.044065f, -0.103321f, 0.109053f, 0.026110f, -0.095475f, 0.106276f, 0.037782f, -0.019100f, -0.077552f, 0.044587f, 0.062611f, 0.041872f, -0.095464f, -0.116757f, -0.053458f, 0.108260f, -0.075941f, 0.096501f, 0.133084f, 0.054222f, -0.047380f, 0.135427f, 0.013598f, 0.033139f, 0.033020f, 0.063996f, 0.034924f, -0.006649f, -0.077159f, 0.089135f, -0.089817f, -0.106284f, 0.072316f, 0.020551f, -0.058900f, 0.095564f, -0.112976f, -0.041330f, 0.061124f, 0.072117f, 0.119803f, -0.106578f, -0.029664f, -0.003241f, -0.109189f, 0.090552f, -0.047760f, -0.098865f, 0.053858f, 0.086671f, -0.010272f, -0.072268f, -0.015843f, 0.061255f, 0.154801f, 0.062845f, 0.004478f, 0.008531f, 0.019356f, -0.104550f, 0.081922f, 0.093085f, 0.007352f, -0.056357f, -0.104624f, -0.050508f, 0.015109f, 0.053204f, -0.089373f, 0.108625f, 0.013458f, 0.049188f, 0.041762f, -0.071917f, 0.092530f, 0.057953f, 0.133553f, -0.047454f, -0.096164f, 0.052547f, 0.079510f, -0.007892f, -0.073863f, 0.039591f, 0.042810f, -0.072327f, -0.092753f, 0.001610f, -0.030235f, 0.115114f, -0.078723f, -0.049158f, -0.086226f, -0.087940f, -0.010615f, -0.030750f, 0.103530f, 0.004904f, -0.071370f, 0.129234f, 0.038937f, -0.044297f, 0.069061f, -0.107581f, 0.095717f, 0.068910f, 0.022990f, -0.029413f, 0.018777f, 0.088094f, -0.114480f, -0.070445f, -0.046263f, 0.013476f, 0.048187f, 0.115250f, 0.110181f, -0.015027f, -0.112221f, -0.003962f, -0.023885f, -0.002464f, 0.124388f, 0.048440f, -0.084684f, -0.155830f, -0.049272f, -0.085533f, 0.043566f, -0.001629f, 0.044848f, -0.021133f, 0.034999f, -0.005943f, -0.102637f, -0.037408f, 0.107561f, 0.051559f, 0.082688f, -0.097784f, -0.022862f, 0.064508f, 0.014793f, -0.042952f, 0.096653f, 0.032254f, -0.054693f, 0.042566f, -0.042323f, -0.086319f, -0.017720f, -0.084048f, -0.064353f, 0.018348f, -0.011490f, -0.091558f, -0.033380f, -0.096635f, -0.029126f, -0.104254f, 0.043561f, -0.011215f, 0.069333f, -0.143196f, 0.027125f, 0.081292f, -0.115255f, 0.043153f, 0.089527f, -0.002473f, -0.048037f, -0.022384f, -0.032898f, -0.038790f, 0.009225f, -0.076497f, 0.038470f, -0.083504f, -0.158796f, 0.107505f, -0.042547f, 0.048348f, -0.008594f, -0.032286f, 0.031841f, -0.062757f, -0.014541f, 0.081907f, -0.058565f, 0.021077f, 0.091164f, 0.004310f, -0.014077f, -0.028337f, 0.129948f, -0.087608f, 0.103135f, 0.108189f, 0.049076f, -0.029826f, -0.157678f, 0.112768f, -0.060069f, 0.055470f, 0.066124f, 0.133352f, 0.023299f, 0.042200f, 0.096975f, -0.078703f, -0.040923f, 0.015278f, 0.008657f, 0.040317f, 0.000789f, -0.073108f, 0.093171f, -0.078313f, 0.021952f, -0.053360f, -0.035373f, 0.111482f, -0.082658f, -0.069949f, 0.072448f, 0.039634f, 0.074175f, 0.103256f, 0.094221f, -0.010037f, 0.055924f, 0.101101f, -0.096197f, 0.098546f, 0.071034f, 0.006716f, -0.113334f, -0.072996f, 0.098464f, 0.066327f, 0.030351f, -0.019067f, 0.133492f, 0.015218f, -0.062620f, -0.100166f, -0.106207f, -0.017535f, -0.094728f, -0.009335f, 0.058786f, -0.001175f, 0.122326f, 0.012398f, -0.060750f, -0.060871f, 0.103593f, -0.038078f, -0.051332f, 0.057043f, -0.034133f, -0.024710f, -0.117603f, 0.098680f, -0.111227f, -0.101979f, 0.059788f, -0.050232f, -0.031496f, 0.094416f, -0.100834f, -0.030460f, 0.014288f, -0.060362f, 0.029988f, 0.110239f, 0.043103f, 0.101220f, -0.067371f, -0.094080f, 0.064291f, -0.006126f, 0.005754f, 0.013968f, -0.036913f, 0.074115f, 0.028914f, -0.059894f, 0.021190f, 0.001218f, -0.109848f, -0.012209f, -0.081683f, -0.126419f, 0.112955f, -0.068292f, 0.072076f, 0.020064f, -0.057374f, -0.104681f, 0.054350f, 0.021776f, 0.105308f, 0.033561f, -0.098864f, -0.022093f, 0.063366f, -0.003519f, 0.082747f, 0.076123f, 0.058684f, 0.036804f, 0.036022f, -0.079768f, 0.026304f, 0.057453f, 0.074370f, 0.088228f, 0.073702f, -0.087879f, -0.113046f, 0.060153f, 0.081497f, -0.064946f, -0.027376f, 0.030968f, -0.040650f, -0.018324f, 0.002068f, 0.053412f, -0.015582f, 0.091680f, -0.021714f, -0.050728f, -0.076599f, -0.115034f, -0.011104f, 0.041714f, -0.015652f, -0.025743f, 0.097223f, -0.043050f, -0.082406f, -0.073752f, 0.084622f, 0.074601f, 0.079887f, 0.009561f, -0.012116f, -0.040457f, 0.090667f, 0.050907f, 0.097451f, 0.080834f, 0.085375f, -0.102832f, -0.067361f, 0.019853f, -0.113636f, -0.054625f, -0.060236f, -0.020867f, 0.082250f, -0.091921f, 0.068072f, -0.030988f, -0.044856f, -0.086077f, 0.004396f, -0.006462f, 0.026712f, 0.018527f, -0.001584f, 0.015501f, 0.071453f, 0.030092f, 0.076747f, -0.019721f, 0.036767f, 0.015115f, -0.101401f, 0.103969f, -0.115054f, 0.003930f, -0.007512f, 0.006759f, -0.101175f, -0.095791f, -0.109250f, 0.078995f, 0.064111f, 0.058263f, 0.013260f, 0.102259f, -0.042834f, 0.002400f, -0.096311f, -0.001400f, -0.066800f, -0.011087f, 0.047308f, -0.130072f, 0.027644f, 0.037256f, -0.043353f, 0.058731f, -0.024489f, -0.092419f, -0.052685f, -0.007789f, -0.060312f, 0.011637f, -0.115736f, -0.078557f, 0.009667f, -0.071055f, 0.051789f, 0.086055f, 0.082470f, -0.053658f, 0.086435f, 0.005632f, 0.078116f, -0.005627f, -0.001879f, -0.062185f, 0.112396f, 0.107547f, -0.056607f, 0.064026f, -0.098622f, 0.029264f, -0.119325f, -0.108267f, -0.092857f, -0.067824f, -0.039835f, 0.019106f, -0.040739f, -0.054105f, -0.004939f, 0.081637f, 0.030141f, -0.008927f, -0.084258f, -0.106437f, 0.030048f, 0.001411f, -0.069232f, -0.081987f, -0.065613f, -0.121110f, -0.046663f, 0.001754f, -0.025213f, -0.063415f, -0.087031f, -0.018805f, 0.007493f, 0.038834f, -0.096333f, 0.041433f, -0.054268f, 0.035227f, -0.003072f, -0.033051f, 0.023391f, 0.068357f, -0.052375f, -0.086385f, 0.130831f, -0.003215f, 0.030636f, -0.030772f, 0.077680f, -0.070740f, 0.084775f, -0.011020f, -0.039584f, -0.107359f, 0.038114f, -0.055662f, 0.027203f, 0.080234f, -0.095073f, 0.050441f, 0.087606f, 0.095660f, 0.074505f, 0.040093f, -0.042397f, 0.014439f, -0.106344f, -0.124576f, -0.043490f, 0.081263f, 0.101729f, -0.014775f, -0.073516f, 0.023470f, -0.025639f, -0.026924f, 0.048346f, 0.034569f, 0.062732f, -0.060129f, 0.010667f, -0.082983f, 0.014912f, -0.091889f, -0.043622f, 0.039901f, 0.040388f, 0.040616f, 0.022812f, -0.060826f, -0.089892f, 0.075050f, -0.037182f, 0.021543f, -0.059314f, 0.110178f, -0.082018f, 0.091087f, -0.009537f, -0.014217f, 0.100391f, 0.064118f, 0.127275f, 0.010712f, -0.091745f, 0.084422f, -0.027798f, 0.106492f, 0.014376f, -0.046115f, -0.016632f, 0.003033f, -0.078081f, 0.070562f, 0.038332f, 0.117720f, -0.023982f, 0.008598f, -0.048221f, 0.096558f, -0.021880f, -0.009589f, 0.100736f, 0.037203f, -0.022889f, -0.050147f, 0.081341f, 0.060100f, -0.095460f, 0.006131f, 0.043880f, 0.107605f, -0.006920f, -0.081448f, -0.092479f, 0.076901f, 0.034608f, -0.065597f, 0.011073f, 0.031207f, -0.025443f, -0.017222f, 0.066403f, 0.083306f, -0.034668f, 0.002443f, -0.042442f, -0.040983f, 0.004950f, -0.084043f, 0.003090f, -0.111294f, -0.071312f, 0.067043f, 0.075946f, -0.042862f, 0.098292f, 0.018769f, -0.018483f, 0.003565f, -0.098578f, -0.121564f, 0.036900f, -0.048976f, 0.073064f, 0.062180f, -0.028853f, 0.093719f, -0.016087f, -0.069315f, 0.074215f, 0.051225f, -0.115798f, -0.084053f, -0.007809f, 0.019113f, -0.020104f, -0.065485f, -0.087196f, -0.092217f, 0.064626f, 0.069842f, 0.058460f, -0.054997f, 0.023019f, 0.000978f, -0.021652f, -0.061705f, 0.073319f, -0.043503f, 0.025733f, 0.032887f, 0.052909f, 0.056013f, 0.015117f, 0.041084f, -0.097943f, -0.058773f, 0.074927f, 0.036763f, -0.028657f, -0.100066f, -0.020582f, -0.024792f, -0.072626f, 0.060336f, 0.052442f, -0.040102f, -0.021463f, 0.045986f, -0.016720f, -0.066926f, -0.059576f, -0.026119f, -0.031316f, 0.052327f, 0.030621f, -0.124864f, -0.041959f, 0.016651f, 0.028402f, 0.009411f, 0.018278f, 0.044701f, 0.046971f, 0.058751f, 0.116637f, 0.104252f, 0.105330f, 0.055182f, 0.028424f, 0.096112f, -0.043976f, 0.034388f, 0.083374f, -0.091389f, 0.016657f, -0.119212f, -0.003022f, 0.045786f, 0.065677f, 0.094980f, 0.090917f, 0.060447f, 0.090150f, -0.054903f, -0.072943f, -0.095915f, 0.046788f, 0.062727f, -0.016513f, 0.013368f, 0.016649f, 0.126034f, 0.058227f, -0.039146f, 0.005956f, 0.042608f, 0.039049f, 0.028116f, -0.042986f, -0.037978f, 0.109025f, -0.094460f, 0.088052f, 0.088369f, 0.002081f, 0.083493f, 0.069950f, 0.040284f, -0.028403f, 0.021667f, -0.008853f, -0.028670f, 0.067728f, 0.029316f, 0.013262f, -0.037132f, -0.061035f, -0.071084f, 0.110106f, 0.100503f, -0.018437f, -0.047628f, -0.086785f, 0.075676f, 0.065091f, 0.032225f, -0.106711f, 0.073135f, 0.073927f, 0.124993f, -0.014793f, -0.041988f, -0.049840f, 0.071693f, -0.010619f, 0.090642f, 0.056716f, 0.108678f, -0.038844f, 0.084354f, -0.079805f, -0.016487f, -0.064858f, -0.029834f, 0.064667f, -0.057153f, 0.030009f, 0.012154f, 0.025388f, 0.043882f, -0.092220f, 0.092464f, 0.125924f, -0.100341f, -0.106089f, 0.094488f, 0.073621f, 0.015570f, 0.031102f, -0.077606f, 0.104007f, 0.121748f, 0.037042f, 0.099928f, 0.094169f, -0.065981f, 0.087328f, 0.099898f, 0.079729f, -0.082167f, -0.008398f, 0.032366f, 0.096891f, -0.035414f, 0.084080f, 0.029705f, -0.029272f, -0.017877f, -0.051148f, 0.095486f, -0.047830f, 0.035632f, 0.055312f, 0.011920f, -0.036354f, 0.102349f, 0.019309f, -0.053286f, 0.082776f, -0.058044f, -0.030775f, 0.000879f, -0.036613f, -0.107658f, 0.084898f, 0.037613f, 0.015483f, -0.051364f, 0.079124f, -0.011694f, -0.086048f, -0.057909f, -0.095998f, 0.007574f, -0.093593f, -0.046731f, 0.037187f, -0.083285f, 0.088431f, 0.024650f, -0.074437f, 0.056739f, 0.015775f, 0.078785f, 0.090709f, -0.020546f, -0.128090f, -0.078795f, 0.029236f, -0.013130f, 0.107696f, -0.088616f, 0.085713f, -0.034431f, 0.034031f, 0.103658f, -0.039486f, -0.025124f, 0.091343f, 0.026753f, -0.004422f, -0.069909f, -0.012175f, 0.054662f, 0.124037f, 0.073110f, 0.111065f, 0.057156f, -0.101827f, 0.039269f, 0.114434f, -0.107690f, -0.072747f, -0.017103f, -0.082937f, 0.031768f, 0.070329f, -0.006049f, 0.110062f, 0.110018f, 0.094420f, 0.098544f, 0.101898f, 0.007639f, 0.081002f, -0.071829f, 0.079537f, -0.082713f, -0.035674f, 0.061696f, 0.079420f, -0.035108f, -0.057770f, 0.019002f, -0.032928f, 0.005587f, 0.088324f, -0.042123f, 0.088234f, -0.008481f, 0.052057f, 0.045991f, 0.067357f, 0.009696f, -0.104843f, 0.052100f, 0.004167f, 0.029566f, 0.020951f, 0.083962f, -0.054595f, -0.047665f, 0.079843f, -0.068400f, 0.018394f, -0.088465f, -0.069191f, 0.024361f, 0.074204f, -0.002999f, 0.044071f, 0.067680f, 0.030945f, 0.059730f, -0.002728f, -0.044900f, 0.083662f, 0.092652f, 0.036953f, -0.043368f, -0.042281f, 0.005590f, -0.040539f, 0.051269f, 0.081789f, 0.077584f, 0.003475f, -0.038853f, -0.093414f, -0.063970f, 0.023259f, -0.099602f, 0.004238f, -0.075882f, 0.036271f, 0.058555f, 0.105752f, -0.086928f, -0.038818f, 0.013459f, -0.015901f, -0.025663f, 0.057937f, 0.094292f, 0.082893f, -0.097134f, 0.044982f, 0.090268f, -0.040123f, -0.056269f, 0.078135f, -0.051187f, 0.066123f, -0.102531f, 0.096505f, 0.027605f, -0.080716f, 0.085611f, -0.076514f, 0.076729f, -0.056144f, -0.017471f, -0.013085f, -0.098736f, -0.042866f, 0.073377f, 0.013401f, 0.120762f, -0.088915f, -0.035541f, -0.006223f, 0.040544f, 0.077874f, -0.059147f, -0.001488f, 0.058353f, -0.007242f, 0.012668f, 0.050450f, 0.079492f, -0.044502f, -0.066407f, 0.044663f, 0.099456f, 0.102178f, -0.007201f, 0.085157f, -0.031477f, -0.075010f, 0.112998f, 0.009170f, -0.092551f, -0.034358f, -0.111712f, -0.024912f, -0.011669f, 0.089994f, 0.072894f, 0.099429f, 0.083154f, 0.075789f, 0.075656f, -0.030155f, -0.006963f, 0.054899f, -0.065288f, -0.102305f, 0.091619f, -0.001347f, -0.018899f, -0.062060f, 0.102358f, 0.068456f, 0.020494f, 0.109247f, -0.094629f, -0.104954f, -0.010980f, -0.092378f, 0.077787f, -0.080661f, -0.048771f, 0.155117f, 0.087107f, 0.064975f, -0.038392f, 0.048539f, -0.060207f, 0.012015f, 0.071823f, 0.044663f, -0.132061f, -0.070882f, 0.018848f, 0.013446f, 0.049516f, -0.019706f, -0.057477f, 0.075756f, 0.058404f, -0.085586f, 0.064789f, 0.068934f, -0.024688f, 0.046729f, -0.053870f, -0.016520f, -0.116080f, -0.090706f, -0.003956f, 0.040018f, -0.016920f, 0.044381f, 0.116873f, -0.063102f, 0.043419f, 0.015130f, -0.025927f, -0.094656f, -0.019074f, 0.010306f, -0.045247f, -0.099138f, -0.074964f, 0.049219f, 0.097092f, -0.061102f, -0.078719f, -0.049038f, 0.002610f, -0.002196f, 0.113920f, 0.119562f, -0.015251f, 0.010526f, -0.004395f, 0.008281f, -0.090452f, 0.115904f, -0.053955f, 0.069796f, -0.000537f, -0.025001f, 0.026430f, -0.043930f, 0.096533f, 0.050857f, -0.096642f, -0.006492f, -0.028974f, 0.040046f, -0.054025f, -0.079506f, -0.081394f, -0.046621f, 0.076428f, -0.028640f, 0.061835f, 0.069464f, -0.053486f, 0.098566f, -0.056376f, 0.076879f, 0.026418f, -0.097761f, -0.085865f, -0.006700f, 0.083739f, 0.048040f, 0.035379f, 0.119237f, -0.062580f, -0.000583f, -0.005055f, 0.091890f, 0.055898f, 0.104624f, -0.120350f, 0.107572f, 0.040028f, 0.082776f, -0.021916f, -0.037433f, -0.023500f, -0.066096f, 0.005515f, 0.032023f, -0.025187f, 0.048595f, 0.075083f, -0.010704f, 0.018762f, -0.075117f, -0.128290f, -0.099931f, -0.061907f, -0.017988f, 0.105774f, 0.102117f, 0.113003f, -0.018456f, 0.075885f, -0.023067f, 0.025556f, 0.011872f, -0.086967f, -0.068455f, -0.111748f, 0.196231f, 0.085956f, -0.121457f, 0.166505f, 0.044109f, -0.081820f, -0.082029f, 0.045563f, 0.129082f, -0.046235f, -0.224401f, -0.058776f, -0.019688f, -0.038408f, -0.037274f, 0.074996f, -0.097433f, -0.171275f, 0.169077f, -0.014959f, 0.150952f, 0.019587f, 0.185641f, 0.020360f, 0.008471f, 0.148266f, -0.101604f, 0.203457f, -0.089922f, -0.031750f, -0.091095f, -0.217837f, -0.106033f, -0.043926f, -0.017618f, 0.022924f, -0.142320f, -0.079272f, 0.108849f, -0.020596f, 0.052951f, -0.028428f, -0.080600f, -0.042483f, -0.174607f, -0.063439f, -0.049471f, -0.033746f, -0.080109f, -0.023457f, -0.151475f, -0.181109f, -0.126446f, -0.018878f, -0.153191f, -0.200046f, 0.135961f, 0.028407f, 0.059159f, 0.205946f, 0.013980f, -0.051919f, 0.016610f, -0.108373f, 0.017353f, 0.087756f, -0.038532f, 0.136416f, -0.131597f, 0.008551f, 0.109706f, 0.058621f, 0.085945f, 0.147090f, 0.058695f, -0.020681f, -0.031689f, 0.154522f, 0.066486f, 0.082228f, -0.109873f, 0.111040f, -0.092106f, 0.025165f, 0.064804f, 0.091278f, 0.102861f, 0.068035f, 0.000256f, -0.038704f, -0.090726f, -0.043415f, -0.130206f, -0.122939f, -0.108783f, -0.104123f, 0.029425f, 0.160176f, -0.215817f, -0.112380f, 0.093079f, 0.108582f, 0.027198f, 0.055050f, 0.132545f, 0.043556f, -0.092262f, 0.136035f, 0.009412f, -0.171289f, -0.101060f, -0.229074f, -0.003214f, -0.039447f, 0.024467f, -0.011918f, 0.144931f, -0.062481f, 0.008441f, 0.106368f, -0.175166f, -0.045238f, -0.081792f, 0.104569f, -0.019379f, 0.170530f, 0.077777f, -0.198358f, 0.089745f, 0.056208f, 0.064509f, 0.071541f, 0.109498f, -0.163112f, 0.007852f, -0.158487f, -0.018019f, 0.133627f, -0.205475f, 0.153537f, -0.081580f, -0.134425f, 0.063597f, 0.050700f, -0.012073f, -0.155932f, 0.068655f, -0.033811f, -0.031966f, 0.013810f, 0.030841f, -0.165003f, -0.085244f, -0.115117f, -0.050858f, -0.073203f, -0.032198f, -0.087293f, 0.103438f, -0.169535f, 0.041707f, 0.045894f, 0.063639f, -0.103202f, 0.041874f, -0.053232f, -0.001989f, 0.077632f, 0.161307f, 0.130869f, -0.015924f, -0.003783f, -0.092699f, 0.113284f, -0.070217f, -0.155488f, -0.024235f, 0.021509f, -0.059076f, 0.004436f, -0.055266f, -0.162807f, -0.093763f, 0.016319f, -0.091926f, 0.116181f, -0.051218f, -0.029691f, -0.006857f, 0.235211f, 0.076429f, 0.018725f, -0.161034f, 0.027675f, -0.073099f, 0.048893f, 0.016662f, 0.184998f, 0.114349f, -0.051227f, 0.011935f, -0.034254f, 0.112655f, -0.007628f, -0.025308f, 0.117185f, 0.096196f, 0.055947f, 0.084759f, -0.077610f, 0.075795f, -0.087021f, -0.208681f, 0.105676f, 0.179386f, -0.055766f, 0.117918f, -0.101038f, 0.122227f, 0.047108f, 0.054619f, 0.093651f, 0.052159f, 0.072599f, 0.107789f, 0.068339f, -0.020520f, 0.107278f, -0.039020f, 0.042917f, -0.116049f, 0.005452f, 0.147401f, 0.039870f, -0.100721f, -0.002995f, 0.048464f, -0.050245f, -0.162104f, -0.056511f, 0.163969f, -0.094161f, 0.008903f, 0.126381f, -0.064412f, -0.116215f, -0.022786f, -0.039650f, -0.045599f, -0.162336f, 0.073599f, -0.091405f, 0.035845f, -0.068379f, -0.178192f, -0.005488f, 0.126436f, 0.066577f, -0.138873f, -0.189469f, -0.093187f, -0.097319f, -0.008670f, 0.126456f, 0.004124f, 0.058658f, -0.006582f, 0.116589f, 0.120534f, 0.112857f, 0.072696f, -0.039601f, -0.136134f, 0.004540f, 0.053880f, 0.092248f, 0.032892f, 0.076111f, 0.120207f, -0.027152f, -0.045119f, -0.102000f, 0.092572f, -0.079419f, -0.109185f, -0.047976f, 0.004860f, -0.102564f, 0.089130f, 0.087257f, -0.029536f, 0.068435f, -0.081422f, -0.139816f, -0.224721f, -0.056148f, -0.131042f, -0.114701f, 0.071763f, -0.059763f, -0.084028f, 0.177403f, 0.024971f, 0.047852f, -0.061364f, 0.151051f, -0.118754f, -0.012444f, -0.137253f, 0.037191f, 0.079008f, 0.031377f, -0.181534f, -0.067907f, 0.067497f, 0.057835f, -0.036651f, -0.034536f, 0.079737f, -0.215541f, 0.088233f, 0.004453f, -0.048117f, 0.033051f, 0.117398f, -0.061332f, 0.015082f, -0.017736f, 0.077671f, 0.073483f, 0.011461f, -0.042276f, 0.020314f, 0.024247f, -0.017470f, -0.100593f, -0.066779f, -0.191637f, -0.024737f, 0.018175f, -0.045552f, -0.111187f, -0.067953f, -0.184558f, 0.068808f, 0.020963f, 0.029540f, -0.013934f, -0.018195f, -0.199063f, 0.056068f, 0.077386f, -0.015053f, 0.075033f, 0.008728f, 0.080776f, -0.189712f, -0.100702f, 0.061510f, -0.095346f, -0.166836f, 0.141618f, -0.055210f, 0.070643f, 0.033214f, 0.059442f, 0.055245f, 0.040348f, -0.070330f, -0.197650f, 0.009260f, 0.152601f, 0.196111f, -0.057052f, 0.060881f, -0.063198f, 0.016317f, -0.139764f, -0.098686f, -0.126665f, 0.042929f, 0.071156f, -0.158594f, 0.197189f, -0.023217f, 0.071710f, 0.042869f, 0.067720f, -0.048268f, -0.000107f, 0.056081f, 0.046405f, 0.078575f, -0.085792f, 0.049652f, -0.098950f, 0.048218f, -0.089617f, -0.156503f, -0.020679f, -0.132299f, 0.085303f, 0.012599f, 0.032250f, 0.131795f, -0.079489f, 0.061771f, -0.129713f, 0.076029f, 0.009450f, -0.062713f, 0.037198f, -0.089603f, -0.002453f, -0.079918f, -0.082304f, 0.060356f, -0.083046f, 0.022450f, 0.103709f, 0.005679f, 0.109927f, 0.109039f, -0.065902f, 0.047643f, -0.108599f, 0.048747f, 0.075161f, 0.004244f, 0.031067f, 0.028676f, 0.040193f, -0.098504f, 0.033334f, -0.013327f, 0.107461f, -0.029916f, -0.019341f, -0.073870f, -0.086269f, -0.023743f, -0.061869f, -0.100450f, 0.139244f, -0.067538f, 0.082598f, -0.082727f, 0.042360f, -0.123130f, -0.019953f, -0.110602f, 0.033698f, 0.046026f, 0.038397f, -0.045268f, 0.102879f, -0.056447f, 0.070803f, -0.035357f, -0.054972f, -0.011427f, 0.015294f, -0.068320f, 0.067401f, -0.124958f, -0.115031f, -0.007323f, -0.069430f, -0.058731f, -0.001460f, 0.110520f, -0.112951f, 0.149848f, -0.024070f, -0.039206f, -0.149731f, 0.017870f, -0.010160f, -0.070951f, 0.054053f, -0.051064f, 0.038693f, -0.038495f, -0.074164f, 0.072245f, 0.030008f, 0.081431f, -0.082976f, 0.042903f, 0.025188f, 0.086083f, -0.103739f, 0.110990f, 0.046569f, -0.114084f, -0.095844f, 0.031412f, -0.089933f, -0.089097f, -0.007194f, 0.006736f, -0.093932f, 0.012516f, 0.079466f, 0.016232f, 0.032013f, -0.111381f, 0.016130f, 0.032827f, -0.064822f, 0.066429f, -0.021657f, 0.054027f, 0.098308f, -0.097620f, -0.074154f, -0.062959f, 0.067677f, -0.038473f, 0.074791f, 0.086910f, 0.006361f, 0.029914f, 0.097429f, -0.112581f, -0.061443f, 0.073147f, -0.085676f, -0.063802f, -0.076594f, -0.097101f, 0.080164f, 0.060173f, -0.020664f, -0.082598f, -0.021963f, 0.063501f, 0.038553f, -0.050941f, 0.068263f, -0.027806f, 0.073032f, -0.117886f, 0.004476f, -0.032179f, -0.025408f, 0.054113f, 0.083864f, -0.069550f, -0.018553f, -0.051906f, -0.031599f, -0.042820f, -0.033565f, -0.079426f, -0.074151f, -0.138475f, -0.067062f, 0.050967f, -0.102848f, 0.113964f, 0.073208f, 0.024204f, -0.064010f, 0.137134f, 0.070942f, 0.137085f, -0.001532f, -0.154697f, 0.023981f, 0.006620f, 0.050371f, -0.106553f, 0.089949f, -0.033753f, 0.032124f, -0.134610f, -0.039816f, 0.073499f, -0.062610f, 0.026115f, -0.017640f, -0.037543f, -0.127854f, -0.042097f, -0.035444f, -0.049427f, 0.013366f, 0.055016f, -0.064841f, -0.001879f, -0.125693f, -0.097037f, -0.044193f, -0.013490f, -0.015700f, -0.117646f, -0.012842f, 0.036865f, -0.019069f, -0.040566f, 0.023745f, 0.137800f, -0.093245f, -0.029182f, -0.002018f, 0.083536f, 0.044177f, 0.014639f, -0.097759f, 0.092369f, -0.009323f, -0.057500f, -0.027826f, -0.081874f, 0.061903f, 0.073958f, 0.043600f, 0.158798f, -0.045715f, -0.176170f, 0.018287f, 0.016789f, -0.002543f, 0.146043f, -0.047545f, -0.077074f, -0.049655f, 0.002419f, -0.105658f, 0.064551f, 0.071917f, -0.014262f, -0.019098f, -0.101990f, -0.048903f, -0.007437f, -0.091682f, -0.003318f, 0.119471f, 0.055587f, 0.001816f, -0.081071f, 0.045226f, 0.074688f, -0.127118f, 0.017106f, 0.045451f, 0.011133f, -0.103608f, 0.086492f, 0.094259f, -0.050560f, -0.095302f, 0.042362f, -0.004980f, -0.021810f, 0.024710f, -0.005214f, 0.139005f, -0.112053f, -0.054664f, 0.001819f, -0.041860f, -0.089154f, 0.044142f, 0.058600f, -0.057270f, -0.123193f, 0.060113f, 0.087305f, -0.070233f, 0.044600f, 0.123158f, -0.010649f, 0.117446f, 0.030110f, -0.047339f, -0.072941f, -0.043669f, -0.119957f, 0.070170f, 0.063219f, 0.018082f, 0.010497f, -0.086493f, 0.020962f, 0.087695f, 0.045984f, 0.056358f, -0.073616f, -0.124597f, -0.022471f, -0.073705f, 0.034400f, 0.127569f, 0.003658f, 0.022917f, -0.059498f, 0.007336f, 0.051425f, -0.074628f, 0.088079f, 0.030668f, 0.149983f, -0.079260f, 0.031887f, -0.063770f, -0.138551f, 0.066150f, 0.017768f, 0.046252f, 0.054370f, -0.072620f, -0.128793f, 0.013618f, -0.043239f, -0.061304f, 0.019085f, 0.059709f, 0.017934f, -0.025381f, 0.060890f, -0.135463f, -0.104347f, -0.060549f, -0.121914f, 0.099847f, 0.039251f, 0.060901f, 0.034733f, -0.003552f, 0.028889f, 0.049139f, -0.096052f, 0.113856f, 0.035350f, 0.054955f, -0.053940f, 0.064498f, -0.117968f, -0.112410f, -0.021962f, -0.088200f, 0.079704f, -0.091341f, 0.079089f, -0.119624f, 0.107743f, 0.070327f, 0.016795f, 0.080483f, -0.014277f, 0.001589f, 0.019097f, 0.078002f, 0.040536f, -0.027734f, -0.017653f, -0.117075f, -0.057247f, -0.003731f, -0.059187f, 0.057673f, -0.100005f, 0.057568f, -0.067170f, -0.006557f, 0.125187f, -0.072492f, 0.001762f, 0.086948f, 0.140039f, -0.031185f, -0.065359f, -0.070592f, 0.031664f, 0.063272f, -0.015074f, 0.023385f, -0.022294f, 0.089252f, 0.084303f, 0.077959f, -0.166392f, -0.008620f, 0.134018f, 0.044195f, 0.231139f, -0.173100f, 0.101395f, -0.137958f, -0.056684f, -0.077651f, -0.196195f, -0.016091f, -0.091863f, -0.083586f, 0.033998f, -0.112566f, -0.072862f, -0.022160f, 0.131962f, -0.093896f, -0.133191f, -0.011662f, -0.026317f, -0.064516f, -0.080005f, 0.015713f, 0.169423f, 0.093772f, -0.135014f, -0.108538f, -0.113299f, -0.212579f, -0.111292f, -0.072939f, -0.016168f, 0.065804f, 0.165754f, 0.042404f, -0.019727f, -0.153926f, 0.192133f, -0.135187f, 0.074161f, 0.294084f, 0.162464f, 0.116942f, 0.123916f, -0.110212f, -0.016063f, -0.125537f, -0.054046f, -0.020017f, -0.106725f, -0.003939f, 0.081544f, 0.110996f, -0.082455f, 0.132119f, -0.070317f, 0.039907f, -0.100404f, 0.220092f, 0.049942f, 0.052341f, 0.074229f, 0.067897f, -0.065806f, -0.103312f, -0.037782f, 0.055452f, 0.032302f, 0.063444f, 0.132815f, 0.145751f, -0.179200f, -0.162159f, -0.178849f, -0.098144f, -0.193074f, -0.100684f, 0.055340f, -0.181153f, -0.169598f, -0.078134f, -0.041367f, 0.042369f, 0.041974f, 0.097615f, 0.003180f, 0.031839f, -0.105930f, -0.063739f, -0.044704f, 0.001544f, 0.015686f, -0.194662f, -0.111510f, -0.082434f, 0.091831f, -0.183382f, 0.071950f, 0.130524f, 0.212291f, -0.016540f, -0.093833f, -0.034595f, -0.112898f, 0.001065f, 0.127904f, 0.002552f, 0.082713f, -0.123493f, -0.001799f, 0.156345f, -0.015036f, 0.172998f, 0.017488f, -0.027474f, 0.054103f, -0.071562f, -0.048905f, 0.008104f, -0.202629f, -0.046467f, -0.089682f, -0.140854f, 0.085689f, 0.048978f, -0.019455f, -0.066458f, -0.101068f, -0.081623f, 0.071972f, -0.025136f, -0.140347f, -0.017612f, 0.023805f, -0.140323f, -0.095126f, -0.053790f, 0.125703f, 0.058457f, -0.111807f, -0.057913f, -0.120433f, 0.161908f, 0.024156f, 0.025854f, 0.014949f, -0.048520f, -0.080144f, -0.049014f, 0.023087f, -0.005097f, -0.064474f, 0.069672f, -0.119302f, -0.018824f, 0.076642f, -0.044880f, -0.027105f, -0.058907f, -0.044068f, -0.038209f, -0.241338f, -0.086595f, -0.010252f, 0.083414f, -0.189909f, 0.203608f, 0.145074f, -0.011023f, 0.039656f, 0.256303f, -0.023898f, -0.040229f, -0.248157f, 0.034997f, 0.034595f, 0.141910f, -0.136086f, 0.003592f, 0.185731f, 0.135294f, -0.092600f, 0.140154f, 0.082052f, -0.063328f, 0.048855f, -0.095231f, 0.157217f, 0.091389f, -0.104723f, -0.021035f, 0.040358f, -0.001569f, 0.006920f, -0.007708f, 0.012057f, 0.044987f, 0.079037f, -0.191953f, 0.030727f, 0.028380f, 0.010765f, -0.026990f, 0.132692f, -0.008974f, 0.024891f, 0.073688f, 0.040707f, -0.012764f, -0.084361f, -0.065304f, -0.036281f, 0.091892f, 0.097320f, -0.028912f, -0.087663f, 0.092857f, 0.136735f, -0.145973f, -0.180507f, -0.025187f, 0.161241f, -0.061536f, -0.182409f, 0.087288f, -0.096610f, -0.077890f, 0.175887f, -0.084406f, -0.013236f, -0.043050f, 0.103824f, -0.032397f, -0.013278f, -0.019240f, -0.204606f, 0.045344f, 0.048431f, 0.011814f, -0.172855f, -0.278437f, -0.102726f, -0.164165f, -0.016065f, 0.029258f, 0.003800f, 0.075482f, 0.159688f, 0.028400f, -0.070989f, 0.132460f, -0.094343f, 0.148132f, -0.028703f, 0.012156f, -0.051217f, 0.153494f, -0.161001f, 0.009335f, -0.092383f, -0.119763f, -0.090897f, -0.203708f, 0.037530f, -0.064569f, -0.155823f, -0.086272f, 0.170599f, 0.058862f, 0.070856f, 0.110502f, 0.150729f, 0.127541f, -0.052474f, -0.129355f, -0.182518f, -0.039678f, -0.211406f, -0.061718f, -0.138127f, -0.043348f, -0.103828f, 0.147120f, -0.033021f, 0.024058f, -0.033502f, 0.247110f, -0.054227f, -0.069047f, -0.194963f, -0.048898f, 0.027411f, 0.138203f, -0.048720f, -0.040452f, -0.088768f, 0.159543f, 0.016306f, -0.077137f, -0.048011f, -0.063732f, 0.202054f, 0.139642f, 0.052799f, -0.099840f, 0.021070f, 0.183603f, -0.035039f, 0.107292f, 0.125670f, 0.196124f, -0.075808f, -0.111533f, -0.094451f, 0.084847f, -0.045247f, -0.222447f, 0.057586f, -0.083908f, 0.161015f, 0.069506f, 0.172943f, 0.102091f, 0.084878f, -0.085702f, -0.085001f, 0.171876f, -0.116413f, -0.130303f, 0.048443f, -0.092605f, 0.040063f, 0.063409f, 0.008465f, 0.101524f, 0.074748f, 0.183439f, -0.303630f, 0.013942f, -0.118136f, 0.029498f, -0.055398f, 0.156616f, 0.051959f, 0.020795f, 0.100412f, 0.165216f, -0.094525f, -0.146674f, -0.031221f, 0.051739f, -0.005338f, -0.059813f, 0.124694f, -0.029663f, -0.016962f, -0.010398f, 0.017974f, -0.134155f, 0.058035f, -0.116663f, -0.030899f, -0.029836f, -0.115098f, 0.230785f, -0.026819f, -0.055982f, 0.016460f, -0.026032f, 0.045523f, -0.041744f, 0.058011f, -0.116345f, -0.063077f, -0.084688f, 0.079187f, 0.114837f, 0.054303f, -0.077461f, 0.001980f, 0.077917f, -0.037526f, -0.024716f, -0.059118f, 0.055146f, 0.105299f, 0.046171f, 0.077728f, 0.029703f, -0.104361f, -0.010578f, 0.024899f, -0.102551f, -0.014969f, 0.094085f, -0.023951f, 0.066644f, 0.010641f, -0.065759f, 0.059440f, 0.100796f, -0.063135f, -0.007102f, 0.019495f, -0.043318f, 0.033538f, 0.113074f, -0.043737f, 0.008342f, -0.091383f, -0.075654f, -0.107209f, -0.050605f, -0.049947f, -0.071128f, 0.087265f, 0.067716f, 0.041251f, -0.124237f, -0.120435f, -0.093903f, 0.031296f, 0.043635f, 0.011716f, -0.009793f, 0.097528f, 0.072861f, -0.078535f, 0.047644f, 0.075785f, 0.045314f, -0.070755f, -0.083069f, -0.101275f, -0.036681f, 0.110227f, 0.059865f, 0.115251f, 0.020134f, -0.038756f, 0.075798f, 0.067193f, -0.101423f, -0.115790f, 0.078576f, -0.018680f, -0.073014f, 0.009827f, 0.006489f, -0.014609f, 0.021894f, -0.004963f, 0.056686f, 0.015340f, 0.079775f, 0.061870f, -0.042121f, 0.119104f, 0.000886f, -0.096566f, -0.090511f, 0.093651f, -0.037861f, 0.024442f, -0.089763f, -0.040411f, 0.121666f, 0.098650f, -0.008247f, -0.084897f, -0.016345f, 0.039649f, 0.031181f, -0.040229f, -0.136169f, 0.054526f, 0.028931f, -0.015784f, 0.125675f, -0.102668f, 0.012087f, 0.045105f, -0.064200f, 0.065083f, 0.018104f, -0.093723f, 0.016040f, -0.106986f, -0.029907f, -0.086959f, 0.099744f, -0.017411f, -0.132595f, -0.010380f, 0.044536f, 0.079428f, -0.070107f, -0.116429f, 0.022362f, -0.043918f, 0.100071f, -0.117410f, 0.081593f, 0.037376f, 0.022403f, 0.076732f, 0.016760f, -0.018610f, 0.106399f, -0.047591f, 0.103494f, 0.094856f, 0.107568f, -0.061626f, 0.080389f, -0.008720f, -0.004007f, -0.075025f, -0.090825f, -0.071206f, 0.058356f, -0.121109f, -0.097241f, 0.070861f, 0.044939f, 0.049802f, 0.104826f, 0.087610f, 0.018518f, -0.060419f, -0.036674f, 0.034854f, -0.015742f, 0.045501f, -0.011464f, -0.014414f, 0.113644f, -0.058166f, 0.053012f, -0.000917f, -0.047603f, -0.016805f, -0.008757f, -0.018740f, -0.045541f, 0.032106f, -0.020309f, 0.031647f, -0.014534f, 0.011670f, -0.012551f, 0.002585f, -0.064449f, -0.014458f, 0.043574f, 0.131038f, -0.044956f, 0.085724f, 0.025951f, 0.003182f, 0.130002f, -0.093083f, 0.120107f, 0.043954f, -0.003199f, -0.100118f, -0.059191f, -0.084201f, -0.015278f, 0.009877f, 0.011222f, 0.074224f, 0.047118f, -0.100098f, 0.036375f, 0.066859f, 0.013926f, -0.106058f, 0.066861f, 0.052891f, -0.075023f, 0.108567f, 0.045735f, -0.061155f, 0.008309f, -0.051600f, -0.022644f, 0.109569f, 0.090325f, 0.018328f, -0.034918f, 0.003057f, 0.047429f, -0.032179f, -0.125448f, -0.037138f, 0.072684f, 0.004897f, -0.052428f, -0.051679f, 0.034152f, -0.020210f, -0.002967f, -0.109111f, -0.054229f, -0.000173f, 0.029058f, -0.047901f, -0.005217f, 0.049001f, -0.091513f, -0.051480f, -0.107683f, -0.097628f, 0.013815f, -0.007489f, -0.024780f, 0.102097f, 0.065034f, -0.009485f, -0.034296f, -0.060412f, 0.051064f, 0.057591f, -0.071255f, 0.049960f, 0.002300f, 0.066767f, 0.023186f, -0.039369f, 0.054303f, -0.029433f, -0.050553f, 0.023682f, -0.011148f, -0.090642f, -0.021840f, -0.021454f, 0.085463f, -0.089047f, 0.042646f, 0.026403f, 0.014537f, -0.092860f, -0.056016f, 0.016886f, -0.127752f, 0.145200f, 0.100192f, -0.092692f, 0.090693f, 0.034198f, -0.048219f, 0.019869f, -0.091317f, 0.108906f, -0.017567f, 0.017562f, -0.045828f, -0.027713f, 0.022867f, 0.071606f, -0.010829f, -0.033225f, -0.095745f, 0.109273f, 0.095093f, -0.057676f, -0.005899f, -0.009745f, 0.064303f, 0.096359f, 0.042967f, -0.086561f, -0.081873f, -0.093047f, 0.147004f, -0.039626f, -0.049798f, -0.146571f, -0.027022f, 0.070776f, -0.073266f, 0.010893f, -0.008401f, -0.086007f, -0.089515f, 0.046415f, 0.039500f, -0.018230f, 0.096333f, -0.064943f, 0.121583f, 0.028613f, 0.098837f, 0.081184f, 0.067209f, -0.038671f, 0.003346f, -0.085034f, 0.014421f, 0.016147f, -0.073610f, 0.050249f, -0.045066f, 0.036994f, 0.059110f, 0.053308f, -0.069258f, -0.125779f, -0.052615f, -0.149678f, 0.018689f, -0.046295f, -0.074899f, -0.018239f, -0.017290f, 0.080412f, 0.108153f, 0.063914f, 0.024102f, -0.060400f, 0.122883f, 0.012254f, 0.082202f, -0.036288f, -0.005728f, -0.092235f, 0.088466f, 0.026063f, -0.019239f, -0.057993f, -0.072383f, 0.047757f, 0.122333f, -0.092122f, 0.026321f, -0.066422f, -0.105013f, -0.041002f, -0.109888f, 0.092344f, -0.010827f, 0.028495f, 0.019601f, 0.001958f, -0.054683f, -0.139290f, 0.110601f, -0.094948f, -0.119204f, -0.060364f, -0.098180f, -0.010033f, 0.104733f, -0.189001f, 0.142828f, 0.108416f, 0.041282f, 0.067562f, -0.068191f, 0.029805f, -0.049892f, -0.150708f, 0.010212f, 0.179070f, -0.034677f, 0.054912f, 0.063744f, -0.071969f, -0.005066f, 0.011743f, 0.155143f, 0.115155f, 0.193123f, 0.188859f, -0.133323f, 0.040523f, 0.055220f, 0.043881f, -0.016112f, -0.097749f, 0.021840f, 0.020974f, 0.083223f, 0.136218f, -0.105774f, 0.072575f, -0.007940f, 0.053812f, -0.017102f, 0.099396f, -0.122783f, 0.025369f, -0.092403f, -0.093883f, -0.035815f, 0.017150f, -0.125752f, 0.020008f, 0.001725f, 0.117411f, 0.054532f, 0.054249f, 0.065569f, -0.024216f, 0.024469f, -0.000820f, -0.200547f, 0.033812f, -0.040561f, 0.094045f, 0.092224f, 0.032236f, -0.073196f, 0.023189f, -0.014375f, 0.076477f, 0.067761f, -0.053313f, -0.002725f, -0.098188f, 0.056034f, -0.035688f, -0.090228f, -0.004602f, -0.068501f, -0.067420f, -0.131875f, -0.219133f, -0.061032f, -0.046152f, 0.011953f, 0.019078f, -0.050808f, 0.066307f, -0.123367f, 0.020787f, -0.066138f, 0.127303f, -0.086676f, -0.024896f, -0.094472f, 0.013251f, -0.023323f, -0.006900f, 0.024357f, 0.027114f, -0.043826f, 0.077815f, -0.008324f, -0.110149f, 0.053651f, -0.068032f, -0.014281f, 0.082658f, -0.068398f, -0.143560f, -0.029149f, 0.140108f, 0.032075f, 0.063706f, 0.025308f, 0.006836f, 0.055673f, 0.029778f, -0.128532f, -0.066212f, 0.007705f, -0.005560f, -0.049912f, -0.020520f, 0.053067f, -0.073534f, -0.045457f, 0.072719f, -0.027559f, 0.103292f, 0.035223f, 0.000531f, -0.066775f, -0.031848f, -0.056093f, 0.021911f, 0.057115f, -0.016904f, -0.012949f, -0.073585f, -0.068151f, 0.124623f, 0.078779f, -0.000064f, -0.006713f, 0.004093f, 0.016842f, 0.033266f, 0.064148f, 0.034210f, -0.099869f, 0.130926f, -0.153461f, 0.073489f, -0.045533f, 0.182192f, 0.104046f, -0.084776f, -0.012834f, 0.007385f, -0.003639f, 0.097323f, -0.156836f, 0.079810f, -0.094419f, -0.026868f, 0.131206f, -0.068835f, -0.038299f, 0.066995f, 0.073139f, -0.122851f, 0.074871f, -0.047515f, -0.123089f, 0.079168f, -0.037988f, 0.071350f, -0.034162f, 0.116981f, 0.015045f, 0.191233f, 0.035508f, -0.131265f, 0.051263f, 0.151597f, -0.104289f, -0.130339f, -0.040441f, 0.025661f, -0.113578f, -0.110636f, 0.053173f, 0.217659f, 0.090438f, 0.127485f, -0.120128f, 0.107925f, 0.023542f, 0.093694f, -0.254647f, 0.011580f, -0.092954f, -0.012804f, 0.095637f, -0.033441f, 0.036326f, 0.057903f, 0.053629f, 0.079299f, -0.012179f, 0.062111f, 0.009887f, 0.035855f, 0.112667f, 0.064780f, -0.083226f, -0.115216f, 0.116838f, 0.024115f, -0.078161f, 0.005718f, -0.004373f, 0.093450f, -0.020082f, -0.144779f, -0.030703f, -0.073377f, 0.001587f, 0.109505f, -0.076830f, -0.027256f, -0.031337f, -0.093512f, -0.066074f, 0.216418f, 0.059648f, -0.152706f, 0.095504f, 0.038351f, 0.115639f, -0.151810f, 0.038240f, 0.047534f, 0.002167f, -0.000395f, 0.035927f, -0.052146f, 0.073761f, -0.028374f, 0.083762f, 0.001911f, 0.144076f, -0.049929f, 0.002519f, 0.013266f, 0.013166f, -0.041698f, -0.177645f, 0.011997f, 0.067854f, -0.044895f, -0.000901f, -0.001260f, 0.098523f, 0.074112f, -0.092072f, -0.050202f, 0.023169f, -0.110979f, -0.031886f, -0.033932f, 0.032583f, -0.169066f, -0.080860f, 0.052318f, -0.006014f, -0.092147f, 0.011035f, 0.248444f, 0.087467f, 0.015030f, 0.047810f, 0.001125f, 0.154651f, 0.124466f, 0.023950f, -0.119090f, 0.099741f, -0.009548f, 0.011656f, 0.007173f, -0.072781f, 0.170867f, -0.009329f, 0.100225f, 0.043558f, 0.054808f, -0.055128f, -0.034058f, 0.108997f, -0.048469f, -0.079150f, -0.103242f, 0.081003f, 0.082687f, -0.254380f, -0.095632f, -0.064510f, 0.062224f, -0.011904f, -0.038382f, -0.255098f, -0.015610f, 0.066666f, -0.025694f, -0.215141f, -0.069867f, -0.019473f, -0.026078f, 0.023254f, -0.004000f, 0.015235f, -0.036224f, -0.058841f, 0.006565f, -0.036170f, -0.054500f, -0.028451f, -0.110627f, -0.085562f, 0.017705f, 0.042821f, 0.085632f, -0.222951f, -0.124152f, -0.088600f, 0.086945f, 0.023369f, -0.210497f, 0.106377f, -0.072890f, -0.056685f, -0.068046f, 0.096537f, -0.058917f, -0.034826f, 0.011448f, -0.094758f, -0.050404f, -0.022677f, -0.015101f, -0.032505f, -0.039126f, 0.040307f, 0.012078f, 0.000385f, 0.092327f, -0.011903f, 0.059539f, -0.002822f, -0.069645f, -0.031675f, 0.004824f, 0.147747f, -0.066066f, 0.053097f, -0.093466f, -0.074140f, -0.009593f, -0.060366f, 0.019630f, 0.007179f, -0.129060f, 0.059728f, 0.072317f, -0.050756f, -0.012630f, 0.100762f, 0.071081f, -0.046232f, -0.045705f, -0.053758f, 0.053243f, -0.169553f, 0.008233f, -0.059392f, -0.345374f, 0.370309f, 0.235368f, -0.240761f, 0.143211f, -0.155056f, 0.101235f, -0.026721f, -0.042831f, 0.031697f, -0.381260f, -0.067744f, -0.226613f, -0.036631f, 0.326793f, -0.019748f, -0.064274f, -0.398588f, -0.267612f, -0.313975f, 0.483715f, -0.234158f, -0.222597f, -0.144751f, -0.203274f, 0.058342f, 0.203611f, -0.323063f, -0.341851f, -0.189212f, -0.001952f, -0.204074f, 0.143583f, -0.086334f, -0.417123f, 0.214558f, -0.512054f, 0.440800f, -0.133039f, 0.064025f, -0.074851f, 0.209798f, 0.537556f, 0.091867f, -0.427527f, -0.517381f, -0.280543f, -0.080552f, -0.135834f, 0.204397f, 0.038165f, -0.237010f, -0.168190f, -0.230798f, -0.094188f, 0.245755f, -0.011464f, 0.174444f, 0.490410f, 0.050486f, -0.086589f, -0.042165f, -0.166857f, -0.074368f, -0.364064f, -0.159144f, -0.105163f, 0.379026f, 0.048667f, 0.074616f, -0.199143f, 0.149167f, -0.098034f, 0.053495f, -0.307205f, -0.020346f, 0.132732f, 0.011710f, 0.079212f, 0.132716f, 0.158336f, -0.213948f, 0.191414f, 0.067743f, 0.221956f, -0.105168f, 0.259190f, 0.228290f, 0.090242f, -0.477472f, -0.357868f, -0.269706f, -0.403288f, 0.505503f, -0.003893f, -0.060494f, -0.199088f, -0.094200f, 0.042011f, 0.437647f, 0.073798f, -0.138489f, -0.286206f, -0.039005f, -0.036000f, 0.124176f, 0.390553f, -0.035523f, -0.093096f, -0.273451f, -0.201790f, 0.367685f, -0.064932f, -0.076619f, 0.386986f, 0.070852f, 0.388605f, 0.149563f, -0.163132f, 0.119286f, -0.457137f, 0.118368f, 0.312626f, 0.082419f, 0.150082f, -0.257183f, -0.428894f, 0.447779f, -0.237070f, -0.012220f, 0.239391f, -0.026347f, 0.441777f, 0.011393f, 0.293365f, 0.401580f, -0.408580f, 0.131361f, -0.004321f, -0.327097f, 0.059477f, -0.135872f, -0.381378f, -0.017382f, -0.165952f, -0.006547f, 0.026920f, 0.168590f, -0.290563f, -0.106800f, -0.120062f, 0.004209f, 0.495389f, -0.103333f, -0.109014f, 0.078643f, -0.382230f, -0.350717f, -0.156544f, -0.079847f, -0.020546f, 0.012600f, -0.107140f, 0.002170f, 0.156291f, 0.152593f, 0.423868f, 0.181933f, -0.315412f, 0.479790f, -0.408455f, 0.122814f, 0.238287f, -0.500045f, -0.041045f, 0.296813f, 0.105538f, -0.302244f, 0.159486f, 0.040151f, 0.243102f, -0.136446f, -0.127958f, 0.498860f, 0.361665f, -0.212702f, -0.302907f, -0.430223f, -0.156738f, -0.307757f, 0.496087f, -0.098170f, 0.194613f, 0.296105f, -0.156624f, 0.083232f, 0.222036f, 0.054565f, 0.323739f, 0.296956f, 0.399722f, 0.098814f, 0.063352f, -0.145083f, 0.141797f, 0.030075f, -0.206265f, -0.062399f, 0.144494f, -0.271296f, 0.165633f, 0.070385f, 0.169584f, -0.455752f, 0.205542f, -0.427811f, 0.503989f, 0.159544f, -0.042144f, 0.455638f, 0.230839f, 0.269772f, 0.272329f, -0.293399f, 0.000854f, 0.512935f, -0.249823f, 0.022679f, 0.088728f, -0.222057f, -0.027903f, 0.056719f, -0.012062f, 0.247684f, -0.137866f, 0.136777f, -0.329059f, -0.391201f, -0.028015f, 0.042057f, 0.121045f, -0.060289f, -0.433274f, -0.232690f, 0.407101f, -0.186377f, 0.107953f, -0.082590f, 0.284346f, -0.411389f, -0.265285f, -0.143842f, -0.301211f, -0.016248f, -0.381451f, 0.041587f, 0.080417f, 0.375957f, -0.009421f, -0.544108f, 0.197979f, -0.085243f, 0.253158f, 0.053952f, 0.441366f, 0.167352f, 0.075481f, 0.297396f, -0.142887f, 0.040615f, -0.087510f, -0.314912f, -0.077237f, 0.304625f, -0.425554f, -0.029001f, -0.221754f, -0.384107f, -0.351005f, -0.231827f, 0.493629f, 0.320905f, 0.291159f, -0.066143f, 0.001933f, -0.078878f, 0.170351f, 0.481019f, 0.151267f, -0.132343f, -0.006128f, -0.188365f, -0.065155f, -0.520202f, -0.384528f, -0.320977f, -0.399849f, -0.112000f, -0.133549f, 0.036691f, -0.033431f, 0.216439f, 0.114381f, 0.242375f, 0.234781f, -0.163599f, -0.248274f, -0.302082f, -0.522331f, -0.138317f, -0.196470f, -0.121964f, 0.165482f, 0.001893f, 0.092785f, 0.405178f, -0.167592f, -0.392706f, 0.499996f, 0.290821f, -0.321981f, -0.244501f, -0.382694f, 0.353085f, -0.229687f, 0.156158f, 0.430684f, 0.446769f, -0.402932f, -0.041130f, 0.284300f, -0.112730f, 0.254090f, -0.337998f, -0.263820f, -0.407270f, 0.322062f, -0.037236f, 0.062433f, 0.371225f, -0.007001f, -0.010004f, -0.357459f, 0.090755f, -0.155415f, 0.111644f, -0.320671f, 0.184194f, 0.204914f, 0.147154f, -0.221402f, -0.025819f, 0.225741f, 0.321670f, -0.293776f, 0.273521f, 0.089534f, 0.041105f, 0.020137f, 0.057943f, 0.224546f, -0.237870f, 0.434015f, 0.429061f, -0.286787f, -0.381073f, -0.188404f, 0.202882f, -0.471690f, -0.111105f, 0.336223f, 0.324123f, 0.074648f, 0.030646f, 0.160243f, -0.419332f, -0.349078f, -0.206089f, -0.307054f, 0.044118f, -0.052380f, -0.239262f, -0.028930f, 0.025968f, 0.106981f, -0.065817f, 0.014391f, -0.032552f, -0.031661f, 0.037355f, -0.097571f, 0.047130f, -0.069455f, -0.117875f, 0.033953f, -0.052896f, -0.090176f, 0.028937f, 0.007009f, -0.096240f, -0.032743f, -0.052620f, 0.036968f, 0.052642f, -0.008545f, -0.046798f, 0.106090f, -0.017687f, 0.069922f, 0.078700f, 0.007264f, 0.016516f, 0.003597f, -0.002022f, -0.104326f, 0.026327f, -0.011198f, -0.203391f, 0.024874f, -0.029531f, -0.039720f, 0.112654f, -0.071697f, 0.030796f, 0.072530f, 0.108004f, 0.085984f, -0.053200f, 0.076418f, 0.080983f, -0.046659f, -0.117531f, -0.064690f, 0.026445f, -0.160634f, 0.003889f, -0.019644f, 0.062065f, 0.055399f, 0.147271f, 0.134242f, 0.112207f, -0.081568f, -0.054399f, 0.086086f, 0.087039f, -0.104293f, 0.074967f, 0.054333f, -0.086654f, -0.103632f, 0.067526f, -0.094415f, 0.011192f, -0.070611f, 0.084649f, -0.003831f, 0.038063f, 0.025784f, -0.044033f, -0.003797f, -0.008959f, -0.009109f, -0.106073f, -0.096653f, -0.102526f, 0.003881f, 0.001801f, 0.058057f, -0.056476f, 0.095759f, -0.011062f, 0.069433f, 0.105672f, 0.087066f, 0.100898f, 0.064004f, -0.088840f, -0.020885f, 0.101050f, 0.050683f, -0.073454f, -0.079529f, -0.088580f, -0.024083f, 0.071340f, 0.032766f, -0.015136f, -0.060957f, -0.074049f, 0.099131f, -0.083072f, -0.008173f, 0.028232f, -0.070991f, 0.016150f, -0.086959f, -0.058290f, 0.087272f, 0.020631f, 0.055072f, 0.038965f, 0.111161f, 0.088690f, 0.033451f, -0.056727f, 0.079317f, -0.001025f, -0.037959f, 0.009702f, -0.017871f, 0.055658f, -0.080587f, 0.084075f, -0.068104f, -0.040350f, -0.049857f, 0.076122f, -0.052796f, -0.095504f, -0.070520f, -0.119889f, -0.000403f, 0.053871f, 0.009923f, 0.022876f, 0.051249f, -0.115046f, -0.109577f, 0.070488f, -0.015790f, 0.092063f, -0.050286f, -0.117602f, 0.030119f, 0.009382f, -0.069901f, 0.042872f, -0.078653f, -0.080054f, -0.010700f, 0.110856f, -0.013741f, 0.069398f, -0.136874f, 0.112724f, -0.081507f, 0.022358f, 0.121540f, -0.118128f, -0.038607f, -0.073321f, 0.101126f, 0.067154f, 0.090636f, -0.030994f, -0.081084f, -0.069811f, 0.145878f, -0.114108f, -0.060727f, 0.035817f, -0.028009f, 0.039044f, 0.096304f, 0.011988f, -0.004695f, -0.040832f, 0.113075f, 0.035377f, 0.031897f, -0.012319f, 0.087916f, 0.065945f, -0.086696f, -0.041751f, -0.008629f, 0.049936f, 0.014109f, 0.100457f, -0.051648f, -0.206418f, 0.067867f, 0.072277f, 0.048179f, -0.114255f, 0.094689f, 0.070803f, 0.065410f, 0.061469f, -0.042529f, 0.074464f, -0.031231f, -0.050096f, 0.062398f, 0.090192f, 0.086262f, 0.024927f, 0.102235f, 0.033375f, 0.074670f, 0.024204f, -0.002599f, -0.050180f, 0.059219f, 0.038913f, 0.086431f, -0.075365f, 0.029173f, 0.034846f, 0.016758f, 0.020377f, 0.055552f, -0.039006f, 0.094914f, 0.167017f, 0.060077f, -0.133096f, -0.047051f, 0.178777f, 0.061508f, -0.021100f, 0.076492f, -0.051526f, 0.048123f, -0.093807f, -0.018600f, -0.020025f, -0.111032f, 0.038594f, 0.080120f, 0.027332f, -0.037012f, 0.048294f, -0.031115f, 0.072049f, 0.003903f, -0.083565f, 0.112327f, -0.081697f, -0.071699f, -0.017141f, 0.057942f, -0.025755f, 0.013250f, 0.007122f, 0.089756f, 0.088245f, -0.037474f, -0.023028f, -0.063943f, -0.051077f, -0.002203f, -0.136031f, -0.038261f, 0.067473f, 0.029234f, -0.037028f, 0.064267f, -0.109573f, 0.139048f, -0.100285f, 0.111647f, 0.074693f, -0.086377f, 0.041253f, -0.123071f, -0.017918f, 0.093248f, 0.109011f, -0.051460f, 0.035950f, -0.001061f, 0.083841f, 0.065569f, -0.057817f, -0.027488f, 0.007629f, -0.086467f, 0.102922f, -0.014787f, 0.014430f, -0.104534f, 0.095685f, 0.069423f, 0.087015f, -0.016474f, 0.058585f, 0.015604f, 0.049190f, -0.059848f, 0.032877f, -0.091343f, 0.017806f, -0.045464f, -0.033065f, -0.193579f, -0.081268f, -0.087749f, -0.076425f, -0.030445f, 0.001495f, -0.090784f, -0.084421f, 0.078284f, 0.100410f, 0.116806f, 0.013447f, -0.071905f, 0.082744f, 0.101866f, 0.104227f, -0.030113f, 0.062225f, 0.037253f, -0.001808f, -0.048501f, -0.075118f, -0.055772f, 0.037128f, 0.073842f, -0.008910f, 0.047090f, 0.050114f, 0.047207f, 0.151649f, -0.022836f, 0.090541f, -0.072417f, -0.098472f, 0.006533f, 0.061913f, -0.065509f, -0.106812f, 0.076807f, 0.098827f, -0.010642f, -0.075815f, 0.036081f, -0.069158f, -0.204743f, 0.128850f, -0.033210f, 0.073631f, -0.021705f, 0.009167f, 0.079312f, -0.043199f, 0.037953f, -0.030306f, -0.015836f, 0.033978f, -0.086948f, -0.012733f, -0.076171f, -0.005345f, -0.035472f, -0.027334f, -0.051723f, 0.035180f, 0.066410f, 0.088604f, -0.002026f, -0.093249f, 0.043576f, -0.068710f, -0.086033f, 0.041877f, -0.067256f, -0.064576f, -0.020464f, 0.047929f, -0.090919f, -0.055767f, 0.079487f, 0.104544f, -0.038862f, -0.061474f, 0.126196f, 0.107675f, 0.083633f, 0.019372f, -0.112065f, 0.083052f, -0.089742f, -0.087969f, -0.004535f, -0.099029f, -0.095191f, -0.078156f, 0.078556f, -0.044544f, 0.067403f, -0.100390f, 0.075318f, -0.040925f, -0.057217f, -0.027194f, -0.038757f, 0.027436f, -0.117991f, 0.072128f, 0.003055f, 0.074924f, 0.057536f, 0.029933f, 0.016182f, -0.045655f, 0.061470f, -0.031772f, -0.041342f, -0.017002f, 0.006931f, 0.033444f, -0.009754f, 0.061707f, 0.040778f, -0.024082f, -0.002411f, -0.064841f, -0.072365f, 0.092611f, -0.052562f, -0.017826f, -0.075251f, -0.079814f, -0.028328f, -0.039003f, 0.107789f, -0.089377f, -0.112355f, 0.019723f, 0.035109f, 0.104499f, -0.084532f, -0.044533f, 0.052384f, -0.025029f, -0.044242f, -0.026805f, 0.055650f, -0.101134f, 0.010158f, 0.043066f, 0.041049f, -0.012957f, 0.137092f, -0.050550f, -0.080283f, -0.020788f, -0.060042f, 0.017885f, -0.102701f, -0.056103f, 0.035344f, -0.057113f, 0.002316f, 0.130867f, 0.082460f, -0.037429f, 0.086121f, 0.064033f, 0.040891f, -0.014938f, -0.015632f, -0.002945f, -0.093006f, -0.018112f, -0.087109f, -0.021460f, -0.097889f, 0.046762f, 0.015941f, 0.050037f, -0.091971f, -0.066231f, -0.046947f, 0.068002f, -0.072944f, 0.072509f, -0.092743f, -0.016954f, -0.003571f, 0.012741f, 0.019206f, -0.015753f, -0.023811f, 0.038141f, 0.090105f, 0.029680f, 0.020994f, 0.058482f, -0.003686f, 0.000722f, -0.049428f, -0.106145f, 0.081996f, 0.055150f, -0.026329f, 0.000374f, -0.136727f, 0.047226f, 0.098212f, -0.001302f, 0.022953f, -0.072038f, -0.005479f, 0.055337f, 0.026262f, 0.064707f, -0.069765f, -0.029936f, 0.108499f, -0.003905f, -0.035507f, -0.023451f, -0.062985f, -0.058719f, -0.021422f, -0.045990f, 0.066947f, 0.030584f, -0.118983f, 0.047321f, -0.023943f, 0.042708f, 0.028802f, -0.016063f, 0.065584f, 0.063549f, 0.069677f, 0.076450f, -0.017019f, 0.027692f, -0.100486f, -0.072164f, -0.092030f, 0.054758f, 0.003003f, -0.038926f, 0.078584f, 0.068914f, -0.081369f, 0.100126f, -0.020070f, -0.102436f, -0.112526f, 0.071449f, -0.002116f, 0.001531f, 0.120218f, -0.071705f, 0.078966f, 0.007939f, -0.052544f, 0.088337f, 0.079174f, 0.084727f, 0.104115f, -0.074279f, -0.082352f, -0.030249f, -0.035464f, 0.069520f, -0.066184f, 0.087624f, -0.014193f, 0.043603f, 0.103509f, -0.013597f, -0.028462f, 0.096334f, 0.027600f, 0.021249f, -0.015435f, -0.022745f, 0.110678f, -0.054875f, 0.077895f, 0.007657f, -0.027127f, 0.067783f, 0.042339f, 0.016104f, 0.075187f, -0.027017f, -0.064615f, -0.088687f, 0.027316f, 0.088512f, -0.007345f, -0.059825f, 0.014335f, 0.094411f, -0.083610f, 0.079624f, -0.066458f, 0.073967f, -0.045509f, -0.090207f, -0.128383f, -0.061869f, 0.011606f, -0.089986f, 0.110864f, 0.108182f, 0.082306f, 0.014646f, -0.048354f, 0.049264f, 0.010820f, -0.045231f, 0.000979f, -0.008852f, 0.054192f, 0.075849f, -0.121191f, -0.068028f, 0.019316f, 0.086582f, -0.034967f, -0.105006f, -0.046922f, 0.014328f, 0.040343f, 0.021315f, -0.081789f, -0.107740f, -0.053159f, -0.055532f, 0.032810f, 0.123458f, -0.096161f, 0.094294f, 0.103275f, -0.010489f, -0.013626f, 0.021669f, -0.003818f, 0.017892f, -0.022562f, 0.002685f, -0.029746f, -0.069424f, -0.086705f, -0.056423f, 0.072459f, -0.002410f, 0.017359f, 0.107973f, -0.130654f, -0.032625f, 0.041943f, -0.031306f, -0.016960f, 0.031977f, -0.109983f, -0.089497f, -0.074699f, 0.049183f, 0.111283f, -0.019456f, -0.051112f, 0.105648f, 0.096591f, 0.017011f, -0.015064f, 0.021038f, -0.085224f, 0.004591f, -0.076694f, 0.008610f, -0.012360f, -0.100163f, 0.068443f, -0.003949f, 0.127588f, 0.056886f, -0.005184f, 0.075176f, 0.092405f, 0.031429f, 0.060596f, -0.003559f, -0.079290f, -0.032626f, 0.074530f, 0.041731f, 0.019757f, 0.081809f, 0.080899f, 0.001188f, -0.086578f, -0.013346f, -0.101481f, 0.006606f, 0.014618f, -0.107995f, 0.007404f, 0.088306f, 0.056049f, -0.010527f, 0.006707f, -0.027133f, 0.064144f, 0.127466f, 0.102821f, -0.023766f, 0.061985f, -0.021603f, 0.011350f, 0.096070f, -0.043510f, -0.022691f, -0.017355f, 0.123347f, 0.090584f, 0.077434f, 0.002480f, 0.049518f, 0.092863f, -0.078412f, 0.077240f, 0.010464f, -0.069324f, -0.017356f, 0.004072f, 0.060306f, -0.039837f, -0.026842f, -0.039608f, 0.022197f, -0.005401f, -0.050470f, 0.073962f, 0.088416f, 0.025312f, -0.101245f, -0.064617f, -0.036336f, -0.102758f, -0.011308f, -0.040016f, 0.082401f, -0.060246f, 0.068913f, -0.071510f, 0.076621f, -0.093612f, 0.011162f, 0.051047f, -0.010581f, 0.025387f, 0.107790f, -0.046854f, 0.004405f, -0.018281f, 0.021170f, 0.010522f, -0.034310f, -0.063367f, 0.126966f, -0.075100f, -0.033111f, 0.063590f, -0.068994f, 0.082820f, -0.106314f, -0.016693f, 0.036417f, -0.003873f, 0.071233f, 0.107854f, -0.085933f, -0.024186f, -0.009196f, -0.043779f, 0.009751f, 0.071366f, 0.029897f, -0.065355f, -0.103331f, -0.084221f, 0.015380f, 0.021123f, 0.142546f, -0.085980f, 0.032647f, 0.096457f, -0.086289f, -0.045387f, 0.004726f, -0.058644f, 0.051522f, 0.008049f, -0.047881f, -0.021873f, 0.006904f, -0.098481f, -0.022594f, 0.023719f, -0.027101f, 0.101633f, 0.065533f, -0.055134f, -0.110252f, -0.055559f, -0.069339f, -0.102933f, -0.087600f, 0.070252f, 0.097119f, -0.082915f, -0.120514f, 0.006881f, 0.115547f, 0.080309f, -0.026093f, -0.088503f, -0.056484f, -0.021839f, 0.092869f, -0.022994f, -0.091973f, -0.106979f, -0.095456f, -0.007738f, 0.041996f, -0.009991f, 0.038967f, 0.069665f, -0.093657f, 0.009531f, 0.030197f, -0.002959f, 0.019067f, -0.034948f, 0.029676f, -0.091505f, -0.089672f, -0.047513f, 0.008659f, 0.016790f, -0.019131f, -0.039367f, -0.111522f, 0.061899f, -0.030356f, -0.055596f, -0.048309f, 0.097616f, -0.015397f, -0.138392f, -0.025630f, 0.022357f, 0.042347f, 0.146752f, 0.065647f, 0.012245f, 0.043152f, 0.123826f, 0.037584f, 0.072297f, -0.073837f, 0.063999f, -0.091997f, -0.048595f, -0.047036f, 0.036286f, -0.006793f, -0.092533f, 0.045419f, 0.086621f, -0.007278f, 0.043496f, -0.005028f, -0.087220f, 0.024899f, -0.009418f, 0.007236f, -0.029697f, -0.042956f, -0.081072f, -0.039196f, 0.086564f, -0.007666f, 0.102434f, -0.064881f, 0.068570f, -0.084899f, 0.005234f, 0.051100f, 0.064077f, -0.084142f, -0.028407f, -0.070468f, 0.071479f, 0.067676f, 0.061402f, 0.018337f, -0.037736f, -0.042362f, 0.024180f, -0.039258f, 0.044471f, -0.035021f, -0.113215f, 0.050527f, 0.084228f, 0.043142f, -0.041876f, -0.006837f, -0.060038f, -0.091947f, 0.031303f, 0.069098f, 0.090260f, 0.011269f, 0.000198f, 0.034809f, -0.053090f, -0.056913f, 0.096783f, -0.002933f, 0.101535f, -0.061395f, -0.011082f, 0.111152f, 0.016139f, 0.057915f, -0.027503f, 0.000949f, -0.117906f, 0.001606f, -0.055771f, 0.059474f, -0.065580f, 0.070893f, -0.095746f, -0.050732f, 0.082454f, -0.053843f, -0.100870f, -0.018366f, -0.049048f, -0.015334f, 0.021177f, -0.051118f, 0.111306f, -0.001464f, -0.009592f, 0.013217f, 0.070735f, 0.034710f, -0.050768f, 0.044644f, 0.098798f, 0.119582f, 0.049699f, -0.073478f, -0.071031f, 0.031162f, -0.053523f, -0.027838f, -0.005946f, -0.040351f, -0.017525f, -0.074004f, 0.101116f, 0.028289f, 0.080361f, -0.040734f, 0.036264f, -0.082722f, -0.051169f, 0.107626f, 0.054120f, 0.078858f, -0.021416f, -0.075204f, -0.079967f, -0.063163f, 0.096032f, -0.094845f, -0.093823f, 0.000164f, 0.057803f, 0.005503f, -0.083753f, 0.035746f, -0.059906f, 0.083242f, -0.085137f, -0.109724f, 0.020526f, -0.023193f, -0.072357f, -0.042726f, -0.101628f, 0.105363f, 0.009739f, -0.076289f, -0.014115f, -0.053609f, 0.028150f, -0.016749f, 0.027646f, 0.074455f, 0.117761f, -0.095644f, -0.020988f, -0.019700f, -0.051249f, 0.025529f, 0.033317f, 0.045728f, 0.008752f, 0.083843f, -0.025737f, -0.094404f, -0.061324f, -0.027484f, -0.054298f, -0.078446f, 0.057115f, -0.011641f, 0.050420f, -0.078798f, 0.105192f, -0.057293f, 0.061377f, 0.111371f, 0.070329f, -0.025239f, -0.071582f, -0.050287f, 0.004523f, 0.012719f, -0.092053f, 0.019468f, 0.077001f, -0.005663f, -0.009576f, -0.065951f, 0.052961f, 0.055517f, -0.014405f, 0.055623f, 0.128631f, 0.123204f, -0.090020f, 0.131445f, 0.008698f, -0.051681f, -0.061059f, -0.016880f, -0.106542f, 0.096972f, 0.022218f, 0.074561f, 0.105209f, -0.066815f, -0.026524f, -0.102533f, 0.037783f, 0.085576f, 0.056331f, -0.046399f, -0.120718f, 0.099839f, -0.013826f, -0.081461f, 0.036057f, -0.093973f, 0.099619f, -0.084748f, 0.015405f, 0.088914f, 0.044712f, -0.076531f, 0.034129f, 0.040066f, 0.057476f, 0.056908f, 0.072516f, -0.040265f, -0.109473f, -0.091588f, -0.062033f, 0.063781f, -0.057338f, 0.030798f, -0.040459f, -0.084999f, -0.053112f, 0.049286f, -0.013525f, -0.053514f, -0.104665f, -0.082852f, 0.064601f, 0.000278f, -0.068069f, -0.065573f, -0.015320f, 0.033548f, -0.017362f, 0.052741f, 0.136538f, -0.091522f, 0.027013f, 0.022209f, -0.035631f, 0.033180f, 0.090912f, 0.009970f, 0.031773f, 0.082589f, -0.009653f, -0.126803f, -0.108109f, 0.011954f, 0.004264f, -0.079750f, -0.117675f, -0.047668f, -0.018275f, -0.007234f, 0.066808f, -0.056815f, 0.089960f, -0.050598f, 0.047655f, -0.055466f, 0.106945f, -0.071331f, -0.169867f, 0.027605f, 0.031582f, 0.090500f, 0.042286f, -0.077945f, 0.050353f, -0.019495f, -0.045265f, 0.152343f, -0.041496f, 0.132773f, -0.094163f, 0.060043f, 0.261274f, 0.083169f, 0.181377f, -0.010763f, -0.211544f, -0.053027f, 0.174598f, -0.117753f, -0.000085f, -0.010641f, 0.039691f, 0.087004f, -0.009260f, -0.032436f, -0.018432f, -0.179018f, -0.210333f, -0.020826f, -0.036559f, 0.025489f, -0.027593f, -0.092635f, -0.073007f, -0.015392f, 0.046729f, 0.003798f, -0.011258f, -0.036848f, 0.084480f, -0.153399f, -0.137740f, -0.165610f, -0.242170f, 0.052783f, -0.005610f, -0.172474f, -0.022534f, 0.025169f, -0.220410f, 0.057136f, 0.097167f, -0.068426f, 0.030421f, -0.012184f, 0.033737f, -0.058066f, 0.200854f, -0.008518f, 0.060621f, 0.004354f, -0.202424f, 0.157095f, -0.176050f, 0.023600f, 0.010879f, -0.126227f, 0.143324f, 0.073835f, 0.242625f, -0.113038f, -0.034943f, 0.085405f, 0.105813f, 0.096032f, -0.056396f, -0.125578f, -0.067615f, -0.038723f, -0.051336f, 0.030918f, 0.254300f, 0.004549f, 0.117431f, 0.112401f, -0.004601f, 0.077895f, 0.068781f, -0.075204f, 0.040970f, -0.005891f, -0.013204f, -0.024740f, -0.159092f, -0.024294f, 0.202312f, 0.085901f, 0.033266f, 0.022610f, 0.075991f, -0.021156f, 0.082157f, 0.215137f, 0.111641f, -0.010724f, -0.047087f, -0.140193f, -0.200711f, -0.045654f, 0.056950f, -0.028459f, 0.112212f, -0.083597f, 0.008458f, 0.062638f, -0.063005f, -0.168469f, -0.009261f, 0.232836f, -0.032212f, 0.079709f, 0.060607f, -0.179049f, -0.089828f, -0.044282f, 0.042101f, 0.009116f, -0.086758f, -0.025402f, 0.052860f, -0.179713f, -0.098369f, -0.011959f, -0.170709f, 0.215285f, 0.104835f, -0.156492f, -0.028077f, 0.074513f, 0.036450f, -0.109623f, -0.049755f, -0.092101f, -0.103617f, -0.000014f, 0.102990f, 0.055289f, -0.079300f, 0.015029f, 0.123287f, -0.051595f, -0.007142f, 0.111119f, -0.070138f, -0.079265f, 0.046319f, -0.030679f, 0.041137f, -0.074174f, 0.206751f, -0.151162f, 0.126145f, -0.117670f, -0.014621f, 0.147752f, 0.076675f, 0.027646f, -0.123786f, -0.107188f, 0.194408f, -0.104973f, 0.104468f, -0.112048f, -0.095988f, 0.186690f, 0.004599f, -0.054607f, 0.207277f, 0.047785f, -0.061785f, -0.095051f, -0.049650f, -0.064865f, -0.097343f, -0.003611f, -0.007228f, -0.074144f, -0.028324f, 0.028880f, -0.009545f, 0.106144f, -0.130820f, 0.177453f, 0.074123f, 0.104821f, -0.019395f, -0.061666f, 0.027878f, -0.014900f, 0.110685f, -0.130629f, -0.064401f, -0.142076f, 0.038560f, -0.119011f, 0.046826f, -0.121622f, 0.002731f, -0.102360f, 0.035572f, -0.054116f, 0.049452f, -0.049332f, -0.010213f, 0.084699f, -0.089063f, -0.103266f, 0.007386f, 0.006695f, -0.023387f, 0.110419f, -0.084749f, 0.143673f, -0.161588f, -0.081556f, 0.080692f, -0.002177f, -0.027031f, 0.085994f, -0.074473f, 0.034940f, -0.108343f, 0.109923f, 0.059012f, 0.047640f, -0.117140f, -0.080596f, -0.151259f, 0.015084f, 0.072983f, -0.047096f, -0.102554f, 0.056583f, -0.240749f, -0.112639f, 0.190034f, -0.093449f, 0.131972f, -0.062500f, -0.049442f, -0.002322f, 0.014931f, -0.050663f, -0.099194f, 0.101901f, 0.168460f, -0.021005f, 0.102123f, 0.072448f, 0.020696f, -0.087137f, 0.100835f, 0.055926f, 0.188919f, 0.217654f, 0.012895f, 0.016820f, -0.079615f, -0.007004f, -0.005405f, -0.020888f, 0.003155f, -0.004008f, 0.012663f, 0.089948f, -0.283915f, -0.199251f, 0.138933f, 0.227896f, 0.154737f, 0.137931f, 0.015057f, 0.044149f, 0.104899f, 0.017535f, 0.189453f, -0.063136f, 0.133152f, 0.041309f, -0.043455f, 0.036680f, 0.021270f, -0.097896f, -0.074726f, -0.012117f, 0.127324f, -0.012186f, 0.144213f, -0.009066f, 0.051743f, 0.116200f, 0.064942f, -0.177372f, -0.072555f, 0.034653f, -0.046386f, -0.081702f, -0.144125f, -0.185873f, -0.033820f, -0.104049f, 0.069574f, -0.077802f, -0.136186f, -0.196705f, 0.151554f, -0.104796f, -0.098080f, -0.135750f, -0.017356f, 0.079003f, -0.067317f, -0.041704f, 0.123328f, 0.115732f, -0.160138f, -0.043495f, 0.024968f, -0.116514f, -0.021477f, -0.193279f, 0.159469f, -0.089338f, 0.026262f, -0.155046f, 0.079697f, 0.098097f, -0.214587f, -0.009734f, 0.065005f, 0.182323f, -0.049739f, -0.138798f, -0.006834f, -0.057421f, 0.030425f, 0.117887f, 0.096521f, 0.097421f, -0.159116f, 0.057017f, -0.157582f, 0.068104f, -0.050975f, -0.039400f, -0.202303f, -0.049468f, 0.117505f, -0.105732f, -0.057825f, 0.178421f, -0.152533f, 0.067797f, -0.101786f, -0.061557f, -0.011122f, 0.111381f, 0.013159f, 0.104205f, -0.037749f, -0.098336f, 0.163179f, -0.043913f, 0.091560f, 0.093770f, -0.233358f, 0.016046f, -0.261627f, -0.089037f, -0.061172f, 0.071781f, 0.093138f, -0.053576f, 0.047674f, 0.046384f, 0.071029f, -0.111332f, -0.018895f, 0.079640f, 0.013917f, -0.046099f, 0.030347f, 0.093278f, 0.101206f, 0.015584f, -0.003437f, -0.067764f, -0.058122f, -0.063979f, -0.024633f, -0.009597f, -0.069851f, 0.110731f, -0.103733f, 0.037098f, -0.038768f, 0.050651f, 0.073652f, -0.029230f, 0.103727f, 0.018481f, -0.036387f, -0.039242f, -0.036124f, 0.107058f, 0.050318f, -0.081954f, 0.010675f, -0.088316f, 0.089554f, -0.052511f, -0.041883f, 0.095815f, -0.078609f, 0.080469f, -0.051419f, 0.061113f, -0.028358f, 0.004529f, 0.088224f, -0.026780f, 0.002269f, 0.063472f, 0.021806f, 0.014718f, -0.047809f, -0.059610f, 0.066917f, -0.039396f, -0.029251f, 0.114477f, -0.048211f, -0.091879f, -0.092116f, -0.068734f, 0.091771f, 0.057480f, 0.047450f, -0.096082f, -0.043716f, -0.076515f, -0.040279f, 0.039395f, 0.074210f, -0.074840f, 0.116370f, -0.002259f, -0.071741f, -0.078440f, -0.051988f, -0.081503f, -0.028387f, 0.029516f, 0.012868f, -0.115346f, -0.093292f, -0.093363f, 0.058645f, 0.029682f, -0.025007f, 0.010756f, -0.034495f, -0.006648f, 0.013254f, -0.020443f, -0.048532f, 0.065381f, 0.103032f, -0.082576f, -0.031310f, 0.067952f, 0.065769f, -0.107089f, 0.066218f, 0.115856f, 0.093629f, -0.024602f, 0.033769f, 0.001445f, 0.062178f, 0.047194f, -0.011460f, -0.022165f, 0.071928f, 0.001267f, 0.026705f, -0.055408f, 0.042018f, -0.109388f, -0.050181f, 0.118632f, 0.061502f, -0.094728f, 0.055298f, 0.076468f, -0.091821f, 0.100125f, 0.084400f, 0.118971f, -0.022508f, -0.086160f, -0.081182f, -0.089091f, 0.117052f, -0.056545f, -0.037179f, -0.033333f, 0.077444f, 0.068047f, 0.085364f, -0.047449f, 0.005601f, -0.036623f, -0.053213f, 0.021297f, 0.050070f, -0.027203f, 0.069379f, -0.070198f, 